svm_type c_svc
kernel_type rbf
gamma 2
nr_class 3
total_sv 203
rho -0.423434 0.243065 0.140721
label 1 2 3
nr_sv 69 91 43
SV
2 2 1:1 2:0.666667 3:1 4:1 5:1 6:0.857143 7:1 8:0.904762 9:0.916667 10:1 11:1 12:0.935484 13:0.935484 14:1 15:1 16:1 17:0.933333 18:1 19:0.933333 20:0.931034 21:0.928571 22:1 23:0.923077 24:0.92 25:0.92 26:1 27:1 28:1 29:0.916667 30:0.916667 31:0.913043 32:1 33:1 34:1 35:1 36:1 37:0.909091 38:1 39:1 40:1 41:1 42:1 43:0.894737 44:1 45:1 46:1 47:0.888889 48:1 49:0.882353 50:1 51:1 52:1 53:1 54:1 55:1 56:1 57:0.866667 58:1 59:0.857143 60:1 61:1 62:1 63:1 64:0.846154 65:0.846154 66:0.846154 67:0.833333 68:0.833333 69:0.833333 70:1 71:0.833333 72:0.833333 73:1 74:0.818182 75:0.818182 76:1 77:1 78:1 79:1 80:1 81:1 82:0.818182 83:1 84:1 85:1 86:1 87:1 88:0.8 89:0.8 90:1 91:0.777778 92:0.777778 93:0.777778 94:1 95:0.777778 96:1 97:1 98:0.995012 99:0.995012 100:1 101:1 102:0.995012 103:0.995012 104:1 105:1 106:0.995012 107:1 108:0.995012 109:1 110:1 111:1 112:0.995025 113:1 114:1 115:0.995025 116:1 117:1 118:0.995025 119:0.995025 120:0.995025 121:0.995025 122:0.995025 123:0.995025 124:0.995025 125:1 126:0.995025 127:0.995025 128:0.995025 
2 1.902144925691318 1:1 2:1 3:1 4:0.714286 5:0.8 6:0.857143 7:0.894737 8:1 9:0.916667 10:1 11:0.931034 12:0.870968 13:0.935484 14:0.935484 15:0.935484 16:0.933333 17:0.933333 18:1 19:0.933333 20:0.931034 21:0.928571 22:1 23:1 24:0.92 25:0.92 26:1 27:0.92 28:1 29:0.916667 30:1 31:0.913043 32:1 33:1 34:1 35:0.909091 36:0.904762 37:0.909091 38:0.904762 39:1 40:1 41:1 42:1 43:1 44:0.894737 45:1 46:1 47:0.888889 48:0.882353 49:1 50:0.875 51:1 52:1 53:1 54:1 55:1 56:1 57:0.866667 58:0.857143 59:0.857143 60:0.846154 61:0.846154 62:1 63:0.846154 64:0.846154 65:0.846154 66:0.846154 67:1 68:0.833333 69:0.833333 70:0.833333 71:1 72:1 73:1 74:1 75:1 76:1 77:1 78:1 79:1 80:1 81:1 82:0.818182 83:1 84:1 85:1 86:1 87:1 88:0.8 89:0.8 90:1 91:0.777778 92:0.777778 93:0.777778 94:0.777778 95:0.777778 96:0.994975 97:0.995012 98:1 99:1 100:1 101:0.995012 102:1 103:1 104:0.995012 105:1 106:1 107:1 108:1 109:1 110:1 111:1 112:0.995025 113:1 114:1 115:0.995025 116:1 117:1 118:0.995025 119:0.995025 120:0.995025 121:0.995025 122:0.995025 123:0.995025 124:0.995025 125:0.995025 126:0.995025 127:0.995025 128:1 
2 1.124896830892606 1:1 2:0.666667 3:1 4:1 5:1 6:0.857143 7:1 8:0.904762 9:1 10:1 11:1 12:0.935484 13:0.935484 14:0.935484 15:1 16:1 17:0.933333 18:1 19:0.933333 20:0.931034 21:0.928571 22:1 23:1 24:0.92 25:0.92 26:1 27:1 28:1 29:0.916667 30:0.916667 31:0.913043 32:1 33:1 34:1 35:1 36:1 37:0.909091 38:0.904762 39:1 40:1 41:1 42:1 43:0.894737 44:1 45:0.888889 46:1 47:1 48:0.882353 49:0.882353 50:1 51:1 52:1 53:1 54:1 55:1 56:1 57:0.866667 58:0.857143 59:0.857143 60:1 61:1 62:1 63:1 64:0.846154 65:0.846154 66:0.846154 67:0.833333 68:0.833333 69:0.833333 70:1 71:0.833333 72:0.833333 73:0.818182 74:0.818182 75:1 76:1 77:1 78:1 79:1 80:1 81:1 82:0.818182 83:1 84:1 85:1 86:1 87:1 88:0.8 89:0.8 90:1 91:0.777778 92:0.777778 93:0.777778 94:0.777778 95:1 96:1 97:1 98:0.995012 99:0.995012 100:1 101:1 102:0.995012 103:1 104:1 105:1 106:0.995012 107:0.995012 108:0.995012 109:1 110:1 111:1 112:0.995025 113:1 114:1 115:0.995025 116:1 117:1 118:0.995025 119:0.995025 120:0.995025 121:0.995025 122:0.995025 123:0.995025 124:1 125:1 126:0.995025 127:1 128:0.995025 
2 0 1:1 2:1 3:1 4:1 5:0.8 6:0.857143 7:0.894737 8:1 9:0.916667 10:1 11:0.931034 12:0.870968 13:0.935484 14:0.935484 15:0.935484 16:0.933333 17:0.933333 18:1 19:0.933333 20:0.931034 21:0.928571 22:1 23:1 24:0.92 25:0.92 26:0.92 27:0.92 28:1 29:0.916667 30:1 31:0.913043 32:1 33:1 34:1 35:0.909091 36:0.904762 37:0.909091 38:0.904762 39:0.904762 40:1 41:1 42:1 43:1 44:0.894737 45:1 46:1 47:0.888889 48:0.882353 49:1 50:0.875 51:1 52:1 53:1 54:1 55:1 56:1 57:0.866667 58:0.857143 59:0.857143 60:0.846154 61:1 62:0.846154 63:0.846154 64:0.846154 65:0.846154 66:0.846154 67:1 68:0.833333 69:0.833333 70:0.833333 71:1 72:1 73:1 74:1 75:1 76:1 77:1 78:1 79:1 80:1 81:1 82:0.818182 83:1 84:1 85:1 86:1 87:1 88:0.8 89:0.8 90:1 91:0.777778 92:0.777778 93:0.777778 94:0.777778 95:0.777778 96:0.994975 97:0.995012 98:1 99:0.995012 100:0.995012 101:1 102:1 103:1 104:0.995012 105:1 106:1 107:1 108:1 109:1 110:1 111:1 112:0.995025 113:1 114:1 115:0.995025 116:1 117:1 118:0.995025 119:0.995025 120:0.995025 121:0.995025 122:0.995025 123:0.995025 124:0.995025 125:0.995025 126:0.995025 127:1 128:1 
2 0.7979928529927076 1:1 2:0.666667 3:1 4:1 5:1 6:0.857143 7:1 8:0.904762 9:1 10:1 11:1 12:0.935484 13:0.935484 14:1 15:1 16:1 17:0.933333 18:1 19:0.933333 20:0.931034 21:0.928571 22:1 23:1 24:0.92 25:0.92 26:1 27:0.92 28:1 29:0.916667 30:0.916667 31:0.913043 32:1 33:1 34:1 35:0.909091 36:1 37:0.909091 38:0.904762 39:1 40:1 41:1 42:1 43:0.894737 44:0.894737 45:0.888889 46:1 47:0.888889 48:0.882353 49:0.882353 50:1 51:1 52:1 53:1 54:1 55:1 56:1 57:0.866667 58:0.857143 59:0.857143 60:0.846154 61:1 62:1 63:1 64:0.846154 65:0.846154 66:0.846154 67:0.833333 68:1 69:0.833333 70:1 71:0.833333 72:0.833333 73:1 74:1 75:1 76:1 77:1 78:1 79:1 80:1 81:1 82:0.818182 83:1 84:1 85:1 86:1 87:1 88:0.8 89:0.8 90:1 91:0.777778 92:0.777778 93:0.777778 94:1 95:0.777778 96:1 97:1 98:1 99:0.995012 100:1 101:1 102:1 103:0.995012 104:1 105:0.995012 106:0.995012 107:0.995012 108:1 109:1 110:1 111:1 112:0.995025 113:1 114:1 115:0.995025 116:1 117:1 118:0.995025 119:1 120:0.995025 121:0.995025 122:0.995025 123:0.995025 124:1 125:1 126:0.995025 127:0.995025 128:0.995025 
2 2 1:1 2:1 3:1 4:0.714286 5:0.8 6:0.857143 7:0.894737 8:0.904762 9:0.916667 10:1 11:0.931034 12:0.870968 13:0.935484 14:0.935484 15:0.935484 16:0.933333 17:0.933333 18:1 19:0.933333 20:0.931034 21:0.928571 22:1 23:1 24:1 25:0.92 26:0.92 27:0.92 28:1 29:0.916667 30:1 31:0.913043 32:1 33:1 34:1 35:0.909091 36:0.904762 37:0.909091 38:0.904762 39:0.904762 40:1 41:1 42:1 43:1 44:0.894737 45:1 46:1 47:0.888889 48:0.882353 49:1 50:0.875 51:1 52:1 53:1 54:1 55:1 56:1 57:0.866667 58:0.857143 59:0.857143 60:0.846154 61:1 62:0.846154 63:0.846154 64:0.846154 65:0.846154 66:0.846154 67:1 68:0.833333 69:0.833333 70:0.833333 71:1 72:1 73:1 74:1 75:1 76:1 77:1 78:1 79:1 80:1 81:1 82:0.818182 83:1 84:1 85:1 86:1 87:1 88:0.8 89:0.8 90:1 91:0.777778 92:0.777778 93:0.777778 94:0.777778 95:0.777778 96:0.994975 97:0.995012 98:1 99:0.995012 100:0.995012 101:1 102:1 103:1 104:0.995012 105:1 106:1 107:1 108:1 109:0.995025 110:1 111:1 112:1 113:1 114:1 115:0.995025 116:1 117:1 118:0.995025 119:0.995025 120:0.995025 121:0.995025 122:0.995025 123:1 124:0.995025 125:0.995025 126:0.995025 127:1 128:1 
2 2 1:1 2:0.333333 3:1 4:1 5:1 6:0.857143 7:1 8:0.904762 9:1 10:1 11:1 12:0.935484 13:0.935484 14:1 15:1 16:1 17:0.933333 18:1 19:0.933333 20:0.931034 21:0.928571 22:1 23:0.923077 24:0.92 25:0.92 26:1 27:0.92 28:1 29:0.916667 30:0.916667 31:1 32:1 33:1 34:1 35:1 36:1 37:0.909091 38:0.904762 39:1 40:1 41:1 42:1 43:0.894737 44:0.894737 45:0.888889 46:1 47:0.888889 48:1 49:0.882353 50:1 51:1 52:1 53:1 54:1 55:1 56:1 57:0.866667 58:0.857143 59:0.857143 60:1 61:1 62:1 63:1 64:0.846154 65:0.846154 66:0.846154 67:0.833333 68:0.833333 69:0.833333 70:1 71:0.833333 72:0.833333 73:1 74:0.818182 75:1 76:1 77:1 78:1 79:1 80:1 81:1 82:0.818182 83:1 84:1 85:1 86:1 87:1 88:0.8 89:0.8 90:1 91:1 92:0.777778 93:0.777778 94:0.777778 95:0.777778 96:1 97:1 98:0.995012 99:0.995012 100:1 101:1 102:0.995012 103:1 104:1 105:0.995012 106:1 107:0.995012 108:0.995012 109:1 110:1 111:1 112:0.995025 113:1 114:1 115:0.995025 116:1 117:1 118:0.995025 119:0.995025 120:0.995025 121:0.995025 122:0.995025 123:0.995025 124:1 125:1 126:0.995025 127:0.995025 128:0.995025 
2 2 1:1 2:1 3:1 4:0.714286 5:0.8 6:0.857143 7:0.894737 8:1 9:0.916667 10:1 11:0.931034 12:0.870968 13:0.935484 14:0.935484 15:0.935484 16:0.933333 17:0.933333 18:1 19:0.933333 20:0.931034 21:0.928571 22:1 23:1 24:1 25:0.92 26:1 27:0.92 28:1 29:0.916667 30:1 31:0.913043 32:0.909091 33:1 34:1 35:0.909091 36:0.904762 37:0.909091 38:0.904762 39:1 40:1 41:1 42:1 43:0.894737 44:0.894737 45:1 46:1 47:0.888889 48:0.882353 49:1 50:0.875 51:1 52:1 53:1 54:1 55:1 56:1 57:0.866667 58:0.857143 59:0.857143 60:0.846154 61:1 62:1 63:0.846154 64:0.846154 65:0.846154 66:0.846154 67:1 68:0.833333 69:0.833333 70:0.833333 71:1 72:1 73:1 74:1 75:1 76:1 77:1 78:1 79:1 80:1 81:1 82:0.818182 83:1 84:1 85:1 86:1 87:1 88:0.8 89:0.8 90:1 91:0.777778 92:0.777778 93:0.777778 94:0.777778 95:0.777778 96:0.994975 97:0.995012 98:1 99:1 100:0.995012 101:0.995012 102:1 103:1 104:1 105:1 106:1 107:1 108:1 109:0.995025 110:1 111:1 112:0.995025 113:1 114:1 115:0.995025 116:1 117:1 118:0.995025 119:0.995025 120:0.995025 121:0.995025 122:0.995025 123:0.995025 124:0.995025 125:0.995025 126:0.995025 127:1 128:1 
2 0.8564938496194555 1:1 2:0.666667 3:1 4:1 5:1 6:0.857143 7:1 8:0.904762 9:1 10:1 11:1 12:0.935484 13:0.935484 14:0.935484 15:0.935484 16:1 17:0.933333 18:1 19:0.933333 20:0.931034 21:0.928571 22:1 23:1 24:0.92 25:0.92 26:1 27:1 28:1 29:0.916667 30:0.916667 31:0.913043 32:1 33:1 34:1 35:1 36:1 37:0.909091 38:1 39:1 40:1 41:1 42:1 43:0.894737 44:0.894737 45:0.888889 46:1 47:0.888889 48:0.882353 49:0.882353 50:1 51:1 52:1 53:1 54:1 55:1 56:1 57:0.866667 58:0.857143 59:0.857143 60:1 61:1 62:1 63:1 64:0.846154 65:0.846154 66:0.846154 67:0.833333 68:0.833333 69:0.833333 70:1 71:0.833333 72:1 73:1 74:0.818182 75:1 76:1 77:1 78:1 79:1 80:1 81:1 82:0.818182 83:1 84:1 85:1 86:1 87:1 88:0.8 89:0.8 90:1 91:0.777778 92:0.777778 93:0.777778 94:0.777778 95:0.777778 96:0.994975 97:1 98:0.995012 99:0.995012 100:1 101:1 102:0.995012 103:1 104:1 105:0.995012 106:0.995012 107:1 108:0.995012 109:1 110:1 111:1 112:0.995025 113:1 114:1 115:0.995025 116:1 117:1 118:0.995025 119:0.995025 120:0.995025 121:0.995025 122:0.995025 123:0.995025 124:1 125:1 126:0.995025 127:0.995025 128:0.995025 
2 2 1:1 2:1 3:1 4:1 5:0.8 6:0.857143 7:0.894737 8:1 9:0.916667 10:1 11:0.931034 12:0.870968 13:0.935484 14:0.935484 15:0.935484 16:0.933333 17:0.933333 18:1 19:0.933333 20:0.931034 21:0.928571 22:1 23:1 24:1 25:0.92 26:0.92 27:0.92 28:1 29:0.916667 30:1 31:0.913043 32:0.909091 33:1 34:1 35:0.909091 36:0.904762 37:0.909091 38:0.904762 39:0.904762 40:1 41:1 42:1 43:0.894737 44:0.894737 45:1 46:1 47:0.888889 48:0.882353 49:1 50:0.875 51:1 52:1 53:1 54:1 55:1 56:1 57:0.866667 58:0.857143 59:0.857143 60:0.846154 61:1 62:0.846154 63:0.846154 64:0.846154 65:0.846154 66:0.846154 67:0.833333 68:0.833333 69:1 70:0.833333 71:1 72:1 73:1 74:1 75:1 76:1 77:1 78:1 79:1 80:1 81:1 82:0.818182 83:1 84:1 85:1 86:1 87:1 88:0.8 89:0.8 90:1 91:0.777778 92:0.777778 93:0.777778 94:0.777778 95:0.777778 96:0.994975 97:0.995012 98:1 99:0.995012 100:0.995012 101:0.995012 102:1 103:1 104:1 105:1 106:1 107:1 108:1 109:1 110:1 111:1 112:0.995025 113:1 114:1 115:0.995025 116:1 117:1 118:0.995025 119:0.995025 120:0.995025 121:0.995025 122:0.995025 123:0.995025 124:0.995025 125:0.995025 126:0.995025 127:0.995025 128:1 
2 0.4306264908340981 1:1 2:0.666667 3:1 4:1 5:1 6:0.857143 7:1 8:0.904762 9:0.916667 10:1 11:1 12:0.935484 13:0.935484 14:1 15:1 16:1 17:0.933333 18:1 19:0.933333 20:0.931034 21:0.928571 22:1 23:0.923077 24:0.92 25:0.92 26:1 27:0.92 28:1 29:0.916667 30:0.916667 31:0.913043 32:1 33:1 34:1 35:1 36:1 37:0.909091 38:1 39:1 40:1 41:1 42:1 43:0.894737 44:1 45:0.888889 46:0.882353 47:0.888889 48:0.882353 49:0.882353 50:1 51:1 52:1 53:1 54:1 55:1 56:1 57:0.866667 58:0.857143 59:0.857143 60:1 61:1 62:1 63:1 64:0.846154 65:0.846154 66:0.846154 67:0.833333 68:0.833333 69:0.833333 70:1 71:0.833333 72:1 73:1 74:0.818182 75:1 76:1 77:1 78:1 79:1 80:1 81:1 82:0.818182 83:1 84:1 85:1 86:1 87:1 88:0.8 89:0.8 90:1 91:1 92:0.777778 93:0.777778 94:0.777778 95:1 96:1 97:1 98:0.995012 99:0.995012 100:1 101:1 102:0.995012 103:1 104:1 105:1 106:1 107:1 108:0.995012 109:0.995025 110:1 111:1 112:0.995025 113:1 114:1 115:0.995025 116:1 117:1 118:0.995025 119:0.995025 120:0.995025 121:0.995025 122:1 123:0.995025 124:0.995025 125:0.995025 126:0.995025 127:1 128:0.995025 
2 2 1:1 2:1 3:1 4:0.714286 5:0.8 6:0.857143 7:0.894737 8:0.904762 9:0.916667 10:1 11:0.931034 12:0.870968 13:0.935484 14:0.935484 15:0.935484 16:0.933333 17:0.933333 18:1 19:0.933333 20:0.931034 21:0.928571 22:1 23:1 24:1 25:0.92 26:0.92 27:0.92 28:1 29:0.916667 30:1 31:0.913043 32:1 33:1 34:1 35:0.909091 36:0.904762 37:0.909091 38:0.904762 39:0.904762 40:1 41:1 42:1 43:0.894737 44:0.894737 45:0.888889 46:1 47:0.888889 48:0.882353 49:1 50:0.875 51:0.875 52:1 53:1 54:1 55:1 56:1 57:0.866667 58:0.857143 59:0.857143 60:0.846154 61:1 62:1 63:1 64:0.846154 65:0.846154 66:0.846154 67:1 68:0.833333 69:1 70:0.833333 71:1 72:1 73:1 74:1 75:1 76:1 77:1 78:1 79:1 80:1 81:1 82:0.818182 83:1 84:1 85:1 86:1 87:1 88:0.8 89:0.8 90:1 91:0.777778 92:0.777778 93:0.777778 94:0.777778 95:0.777778 96:0.994975 97:0.995012 98:1 99:1 100:0.995012 101:1 102:1 103:1 104:0.995012 105:1 106:1 107:1 108:1 109:0.995025 110:1 111:1 112:0.995025 113:1 114:1 115:0.995025 116:1 117:1 118:0.995025 119:0.995025 120:1 121:0.995025 122:0.995025 123:0.995025 124:0.995025 125:0.995025 126:0.995025 127:0.995025 128:1 
2 1.456494435565508 1:1 2:0.666667 3:1 4:1 5:1 6:1 7:1 8:0.904762 9:0.916667 10:1 11:1 12:0.935484 13:0.935484 14:1 15:1 16:1 17:0.933333 18:1 19:0.933333 20:0.931034 21:0.928571 22:1 23:0.923077 24:0.92 25:0.92 26:1 27:1 28:1 29:0.916667 30:0.916667 31:0.913043 32:1 33:1 34:1 35:0.909091 36:1 37:0.909091 38:0.904762 39:1 40:1 41:1 42:1 43:0.894737 44:1 45:0.888889 46:1 47:0.888889 48:0.882353 49:0.882353 50:1 51:1 52:1 53:1 54:1 55:1 56:1 57:0.866667 58:1 59:0.857143 60:0.846154 61:1 62:1 63:1 64:0.846154 65:0.846154 66:0.846154 67:0.833333 68:0.833333 69:0.833333 70:1 71:1 72:0.833333 73:1 74:0.818182 75:1 76:1 77:1 78:1 79:1 80:1 81:1 82:0.818182 83:1 84:1 85:1 86:1 87:1 88:0.8 89:0.8 90:1 91:0.777778 92:0.777778 93:0.777778 94:0.777778 95:0.777778 96:1 97:1 98:0.995012 99:0.995012 100:1 101:1 102:1 103:1 104:1 105:1 106:0.995012 107:1 108:1 109:1 110:1 111:1 112:0.995025 113:1 114:1 115:0.995025 116:1 117:1 118:0.995025 119:0.995025 120:0.995025 121:0.995025 122:0.995025 123:0.995025 124:1 125:1 126:0.995025 127:1 128:0.995025 
2 0.4326436674902575 1:1 2:1 3:1 4:1 5:0.8 6:0.857143 7:0.894737 8:1 9:0.916667 10:1 11:0.931034 12:0.870968 13:0.935484 14:0.935484 15:0.935484 16:0.933333 17:0.933333 18:1 19:0.933333 20:0.931034 21:0.928571 22:1 23:1 24:1 25:0.92 26:1 27:0.92 28:1 29:0.916667 30:1 31:0.913043 32:1 33:1 34:1 35:0.909091 36:0.904762 37:0.909091 38:0.904762 39:0.904762 40:1 41:1 42:1 43:0.894737 44:0.894737 45:1 46:1 47:0.888889 48:0.882353 49:0.882353 50:1 51:0.875 52:1 53:1 54:1 55:1 56:1 57:0.866667 58:0.857143 59:0.857143 60:0.846154 61:0.846154 62:0.846154 63:0.846154 64:0.846154 65:0.846154 66:0.846154 67:1 68:0.833333 69:0.833333 70:0.833333 71:1 72:1 73:1 74:1 75:1 76:1 77:1 78:1 79:1 80:1 81:1 82:0.818182 83:1 84:1 85:1 86:1 87:1 88:0.8 89:0.8 90:1 91:0.777778 92:0.777778 93:0.777778 94:0.777778 95:0.777778 96:0.994975 97:0.995012 98:1 99:1 100:0.995012 101:1 102:1 103:1 104:0.995012 105:1 106:1 107:1 108:1 109:1 110:1 111:1 112:1 113:1 114:1 115:0.995025 116:1 117:1 118:0.995025 119:0.995025 120:0.995025 121:0.995025 122:0.995025 123:1 124:0.995025 125:0.995025 126:0.995025 127:0.995025 128:1 
2 0 1:1 2:0.666667 3:1 4:1 5:1 6:1 7:1 8:0.904762 9:1 10:1 11:1 12:0.935484 13:1 14:1 15:1 16:1 17:1 18:1 19:0.933333 20:0.931034 21:0.928571 22:1 23:1 24:0.92 25:0.92 26:1 27:1 28:1 29:0.916667 30:0.916667 31:0.913043 32:1 33:1 34:1 35:1 36:1 37:0.909091 38:1 39:1 40:1 41:1 42:1 43:0.894737 44:1 45:0.888889 46:1 47:0.888889 48:0.882353 49:0.882353 50:1 51:1 52:1 53:1 54:1 55:1 56:1 57:0.866667 58:1 59:0.857143 60:1 61:1 62:1 63:1 64:0.846154 65:0.846154 66:0.846154 67:0.833333 68:0.833333 69:0.833333 70:1 71:0.833333 72:0.833333 73:1 74:1 75:1 76:1 77:1 78:1 79:1 80:1 81:1 82:0.818182 83:1 84:1 85:1 86:1 87:1 88:0.8 89:0.8 90:1 91:0.777778 92:0.777778 93:0.777778 94:0.777778 95:0.777778 96:1 97:1 98:0.995012 99:0.995012 100:1 101:1 102:1 103:0.995012 104:1 105:1 106:1 107:0.995012 108:0.995012 109:1 110:1 111:1 112:0.995025 113:1 114:1 115:0.995025 116:1 117:1 118:0.995025 119:0.995025 120:0.995025 121:0.995025 122:1 123:0.995025 124:1 125:1 126:1 127:0.995025 128:0.995025 
0.119192639470166 0 1:1 2:1 3:1 4:1 5:0.8 6:0.857143 7:0.894737 8:1 9:0.916667 10:1 11:1 12:0.870968 13:0.935484 14:0.935484 15:1 16:1 17:0.933333 18:1 19:0.933333 20:0.931034 21:0.928571 22:1 23:1 24:1 25:0.92 26:0.92 27:0.92 28:1 29:0.916667 30:1 31:0.913043 32:1 33:1 34:1 35:0.909091 36:0.904762 37:0.909091 38:0.904762 39:0.904762 40:1 41:1 42:1 43:1 44:0.894737 45:1 46:1 47:0.888889 48:0.882353 49:1 50:1 51:1 52:1 53:1 54:1 55:1 56:1 57:0.866667 58:0.857143 59:0.857143 60:0.846154 61:1 62:1 63:1 64:0.846154 65:0.846154 66:0.846154 67:0.833333 68:0.833333 69:0.833333 70:0.833333 71:1 72:1 73:1 74:1 75:1 76:1 77:1 78:1 79:1 80:1 81:1 82:0.818182 83:1 84:1 85:1 86:1 87:1 88:0.8 89:0.8 90:1 91:0.777778 92:1 93:0.777778 94:1 95:1 96:0.994975 97:0.995012 98:1 99:1 100:1 101:0.995012 102:1 103:1 104:0.995012 105:1 106:1 107:1 108:1 109:1 110:1 111:1 112:1 113:1 114:1 115:0.995025 116:1 117:1 118:0.995025 119:0.995025 120:1 121:1 122:0.995025 123:1 124:0.995025 125:0.995025 126:0.995025 127:1 128:1 
0.3314542327260394 0 1:1 2:0.666667 3:1 4:1 5:1 6:1 7:1 8:0.904762 9:1 10:1 11:1 12:0.935484 13:0.935484 14:1 15:1 16:1 17:0.933333 18:1 19:1 20:0.931034 21:0.928571 22:1 23:1 24:0.92 25:0.92 26:1 27:1 28:1 29:0.916667 30:0.916667 31:0.913043 32:1 33:1 34:1 35:0.909091 36:1 37:0.909091 38:1 39:1 40:1 41:1 42:1 43:0.894737 44:1 45:0.888889 46:1 47:0.888889 48:1 49:1 50:1 51:1 52:1 53:1 54:1 55:1 56:1 57:0.866667 58:1 59:0.857143 60:1 61:1 62:1 63:1 64:1 65:0.846154 66:0.846154 67:0.833333 68:0.833333 69:0.833333 70:1 71:1 72:1 73:1 74:1 75:1 76:1 77:1 78:1 79:1 80:1 81:1 82:0.818182 83:1 84:1 85:1 86:1 87:1 88:0.8 89:0.8 90:1 91:1 92:0.777778 93:0.777778 94:1 95:0.777778 96:1 97:1 98:0.995012 99:0.995012 100:1 101:1 102:1 103:0.995012 104:1 105:1 106:1 107:1 108:1 109:1 110:1 111:1 112:0.995025 113:1 114:1 115:0.995025 116:1 117:1 118:0.995025 119:0.995025 120:0.995025 121:0.995025 122:0.995025 123:0.995025 124:1 125:1 126:0.995025 127:1 128:0.995025 
1.446376327461206 0 1:1 2:0.666667 3:1 4:1 5:1 6:1 7:1 8:0.904762 9:1 10:1 11:1 12:0.935484 13:1 14:1 15:1 16:1 17:0.933333 18:1 19:1 20:0.931034 21:0.928571 22:1 23:1 24:0.92 25:0.92 26:1 27:1 28:1 29:0.916667 30:0.916667 31:0.913043 32:1 33:1 34:1 35:1 36:1 37:0.909091 38:1 39:1 40:1 41:1 42:1 43:0.894737 44:1 45:1 46:1 47:0.888889 48:0.882353 49:0.882353 50:1 51:1 52:1 53:1 54:1 55:1 56:1 57:0.866667 58:1 59:0.857143 60:1 61:1 62:1 63:1 64:0.846154 65:0.846154 66:0.846154 67:0.833333 68:0.833333 69:0.833333 70:1 71:0.833333 72:0.833333 73:1 74:1 75:1 76:1 77:1 78:1 79:1 80:1 81:1 82:0.818182 83:1 84:1 85:1 86:1 87:1 88:0.8 89:0.8 90:1 91:0.777778 92:0.777778 93:0.777778 94:1 95:0.777778 96:1 97:1 98:0.995012 99:0.995012 100:1 101:1 102:1 103:1 104:1 105:1 106:0.995012 107:1 108:1 109:1 110:1 111:1 112:0.995025 113:1 114:1 115:0.995025 116:1 117:1 118:0.995025 119:0.995025 120:0.995025 121:0.995025 122:0.995025 123:0.995025 124:1 125:1 126:0.995025 127:0.995025 128:0.995025 
2 0 1:1 2:0.666667 3:1 4:1 5:1 6:1 7:1 8:0.904762 9:1 10:1 11:1 12:0.935484 13:0.935484 14:1 15:1 16:1 17:0.933333 18:1 19:0.933333 20:0.931034 21:1 22:1 23:1 24:0.92 25:0.92 26:1 27:1 28:1 29:0.916667 30:0.916667 31:1 32:1 33:1 34:1 35:0.909091 36:1 37:0.909091 38:1 39:1 40:1 41:1 42:1 43:0.894737 44:1 45:0.888889 46:1 47:0.888889 48:1 49:0.882353 50:1 51:1 52:1 53:1 54:1 55:1 56:1 57:0.866667 58:1 59:0.857143 60:1 61:1 62:1 63:1 64:1 65:0.846154 66:0.846154 67:0.833333 68:0.833333 69:0.833333 70:1 71:0.833333 72:0.833333 73:1 74:0.818182 75:1 76:1 77:1 78:1 79:1 80:1 81:1 82:0.818182 83:1 84:1 85:1 86:1 87:1 88:0.8 89:0.8 90:1 91:0.777778 92:0.777778 93:0.777778 94:0.777778 95:1 96:1 97:1 98:1 99:0.995012 100:1 101:1 102:0.995012 103:1 104:1 105:1 106:0.995012 107:1 108:1 109:1 110:1 111:1 112:0.995025 113:1 114:1 115:0.995025 116:1 117:1 118:0.995025 119:0.995025 120:0.995025 121:0.995025 122:0.995025 123:0.995025 124:0.995025 125:1 126:0.995025 127:0.995025 128:0.995025 
1.794303339269046 0.5166774414984689 1:1 2:1 3:1 4:0.714286 5:1 6:0.857143 7:0.894737 8:1 9:0.916667 10:1 11:1 12:0.870968 13:0.935484 14:0.935484 15:1 16:1 17:0.933333 18:1 19:0.933333 20:0.931034 21:0.928571 22:1 23:1 24:1 25:0.92 26:1 27:0.92 28:1 29:1 30:1 31:0.913043 32:1 33:1 34:1 35:0.909091 36:0.904762 37:0.909091 38:0.904762 39:0.904762 40:1 41:1 42:1 43:0.894737 44:0.894737 45:1 46:1 47:0.888889 48:0.882353 49:1 50:1 51:1 52:1 53:1 54:1 55:1 56:1 57:0.866667 58:0.857143 59:0.857143 60:0.846154 61:1 62:0.846154 63:1 64:0.846154 65:0.846154 66:0.846154 67:1 68:0.833333 69:0.833333 70:0.833333 71:1 72:1 73:1 74:1 75:1 76:1 77:1 78:1 79:1 80:1 81:1 82:1 83:1 84:1 85:1 86:1 87:1 88:0.8 89:0.8 90:1 91:0.777778 92:0.777778 93:0.777778 94:1 95:0.777778 96:0.994975 97:0.995012 98:1 99:1 100:1 101:1 102:1 103:1 104:0.995012 105:1 106:1 107:1 108:1 109:1 110:1 111:1 112:0.995025 113:1 114:1 115:0.995025 116:1 117:1 118:0.995025 119:0.995025 120:0.995025 121:1 122:0.995025 123:1 124:0.995025 125:0.995025 126:0.995025 127:1 128:1 
0.2886766607446957 0 1:1 2:0.333333 3:1 4:1 5:1 6:1 7:1 8:0.904762 9:1 10:1 11:1 12:0.935484 13:0.935484 14:1 15:1 16:1 17:1 18:1 19:1 20:0.931034 21:0.928571 22:1 23:1 24:0.92 25:0.92 26:1 27:1 28:1 29:0.916667 30:0.916667 31:1 32:1 33:1 34:1 35:1 36:1 37:0.909091 38:1 39:1 40:1 41:1 42:1 43:0.894737 44:1 45:0.888889 46:1 47:0.888889 48:1 49:0.882353 50:1 51:1 52:1 53:1 54:1 55:1 56:1 57:0.866667 58:1 59:0.857143 60:1 61:1 62:1 63:1 64:0.846154 65:0.846154 66:0.846154 67:0.833333 68:0.833333 69:0.833333 70:1 71:0.833333 72:1 73:1 74:0.818182 75:1 76:1 77:1 78:1 79:1 80:1 81:1 82:0.818182 83:1 84:1 85:1 86:1 87:1 88:0.8 89:0.8 90:1 91:1 92:0.777778 93:0.777778 94:1 95:0.777778 96:1 97:1 98:0.995012 99:0.995012 100:1 101:1 102:0.995012 103:1 104:1 105:1 106:1 107:1 108:1 109:1 110:1 111:1 112:0.995025 113:1 114:1 115:0.995025 116:1 117:1 118:1 119:0.995025 120:0.995025 121:0.995025 122:0.995025 123:0.995025 124:1 125:1 126:0.995025 127:0.995025 128:0.995025 
2 0 1:1 2:1 3:1 4:1 5:1 6:0.857143 7:0.894737 8:1 9:0.916667 10:1 11:0.931034 12:0.870968 13:0.935484 14:0.935484 15:0.935484 16:0.933333 17:0.933333 18:1 19:0.933333 20:0.931034 21:0.928571 22:1 23:1 24:1 25:0.92 26:1 27:0.92 28:1 29:0.916667 30:1 31:0.913043 32:1 33:1 34:1 35:0.909091 36:0.904762 37:0.909091 38:0.904762 39:0.904762 40:1 41:1 42:1 43:1 44:0.894737 45:1 46:1 47:0.888889 48:0.882353 49:1 50:1 51:1 52:1 53:1 54:1 55:1 56:1 57:0.866667 58:0.857143 59:1 60:0.846154 61:1 62:1 63:0.846154 64:0.846154 65:0.846154 66:0.846154 67:0.833333 68:0.833333 69:0.833333 70:0.833333 71:1 72:1 73:1 74:1 75:1 76:1 77:1 78:1 79:1 80:1 81:1 82:0.818182 83:1 84:1 85:1 86:1 87:1 88:0.8 89:0.8 90:1 91:0.777778 92:0.777778 93:0.777778 94:0.777778 95:0.777778 96:0.994975 97:0.995012 98:1 99:1 100:0.995012 101:1 102:1 103:1 104:1 105:1 106:1 107:1 108:1 109:0.995025 110:1 111:1 112:1 113:1 114:1 115:0.995025 116:1 117:1 118:0.995025 119:0.995025 120:0.995025 121:0.995025 122:0.995025 123:1 124:0.995025 125:0.995025 126:0.995025 127:0.995025 128:1 
1.788346201481218 0 1:1 2:0.666667 3:1 4:1 5:1 6:1 7:1 8:0.904762 9:1 10:1 11:1 12:0.935484 13:0.935484 14:1 15:1 16:1 17:0.933333 18:1 19:0.933333 20:0.931034 21:0.928571 22:1 23:1 24:0.92 25:0.92 26:1 27:0.92 28:1 29:0.916667 30:0.916667 31:0.913043 32:1 33:1 34:1 35:1 36:1 37:0.909091 38:1 39:1 40:1 41:1 42:1 43:0.894737 44:0.894737 45:0.888889 46:1 47:1 48:0.882353 49:0.882353 50:1 51:1 52:1 53:1 54:1 55:1 56:1 57:0.866667 58:1 59:0.857143 60:1 61:1 62:1 63:1 64:1 65:0.846154 66:0.846154 67:0.833333 68:0.833333 69:0.833333 70:1 71:0.833333 72:0.833333 73:1 74:0.818182 75:1 76:1 77:1 78:1 79:1 80:1 81:1 82:0.818182 83:1 84:1 85:1 86:1 87:1 88:0.8 89:1 90:1 91:0.777778 92:0.777778 93:0.777778 94:1 95:0.777778 96:1 97:1 98:0.995012 99:0.995012 100:1 101:1 102:1 103:1 104:1 105:1 106:0.995012 107:1 108:1 109:1 110:1 111:1 112:0.995025 113:1 114:1 115:0.995025 116:1 117:1 118:0.995025 119:0.995025 120:0.995025 121:0.995025 122:0.995025 123:0.995025 124:0.995025 125:1 126:0.995025 127:0.995025 128:0.995025 
1.10068562710347 0 1:1 2:1 3:1 4:1 5:0.8 6:0.857143 7:0.894737 8:1 9:0.916667 10:1 11:1 12:0.870968 13:0.935484 14:0.935484 15:1 16:0.933333 17:0.933333 18:1 19:0.933333 20:0.931034 21:0.928571 22:1 23:1 24:1 25:0.92 26:1 27:0.92 28:1 29:0.916667 30:1 31:0.913043 32:1 33:1 34:1 35:0.909091 36:0.904762 37:0.909091 38:0.904762 39:0.904762 40:1 41:1 42:1 43:1 44:0.894737 45:1 46:1 47:0.888889 48:0.882353 49:1 50:0.875 51:1 52:1 53:1 54:1 55:1 56:1 57:0.866667 58:0.857143 59:0.857143 60:0.846154 61:1 62:1 63:1 64:0.846154 65:0.846154 66:0.846154 67:1 68:0.833333 69:0.833333 70:0.833333 71:1 72:1 73:1 74:1 75:1 76:1 77:1 78:1 79:1 80:1 81:1 82:0.818182 83:1 84:1 85:1 86:1 87:1 88:0.8 89:0.8 90:1 91:0.777778 92:0.777778 93:0.777778 94:1 95:1 96:0.994975 97:0.995012 98:1 99:1 100:1 101:1 102:1 103:1 104:0.995012 105:1 106:1 107:1 108:1 109:0.995025 110:1 111:1 112:0.995025 113:1 114:1 115:0.995025 116:1 117:1 118:0.995025 119:0.995025 120:0.995025 121:0.995025 122:0.995025 123:1 124:0.995025 125:0.995025 126:0.995025 127:1 128:1 
0.7544853041148509 0 1:1 2:0.666667 3:1 4:1 5:1 6:1 7:1 8:0.904762 9:1 10:1 11:1 12:0.935484 13:0.935484 14:1 15:1 16:1 17:1 18:1 19:1 20:0.931034 21:0.928571 22:1 23:1 24:0.92 25:0.92 26:1 27:1 28:1 29:0.916667 30:0.916667 31:0.913043 32:1 33:1 34:1 35:1 36:1 37:0.909091 38:1 39:1 40:1 41:1 42:1 43:0.894737 44:1 45:0.888889 46:1 47:0.888889 48:1 49:1 50:1 51:1 52:1 53:1 54:1 55:1 56:1 57:0.866667 58:1 59:0.857143 60:0.846154 61:1 62:1 63:1 64:0.846154 65:0.846154 66:0.846154 67:0.833333 68:0.833333 69:0.833333 70:1 71:0.833333 72:0.833333 73:1 74:0.818182 75:1 76:1 77:1 78:1 79:1 80:1 81:1 82:0.818182 83:1 84:1 85:1 86:1 87:1 88:0.8 89:0.8 90:1 91:1 92:0.777778 93:0.777778 94:1 95:0.777778 96:1 97:1 98:0.995012 99:0.995012 100:1 101:1 102:1 103:0.995012 104:1 105:1 106:1 107:1 108:1 109:1 110:1 111:1 112:0.995025 113:1 114:1 115:0.995025 116:1 117:1 118:0.995025 119:0.995025 120:0.995025 121:1 122:0.995025 123:0.995025 124:0.995025 125:1 126:0.995025 127:0.995025 128:0.995025 
0.3461356923315864 0 1:1 2:1 3:1 4:1 5:0.8 6:0.857143 7:0.894737 8:1 9:0.916667 10:1 11:1 12:0.870968 13:0.935484 14:0.935484 15:0.935484 16:1 17:0.933333 18:1 19:0.933333 20:0.931034 21:0.928571 22:1 23:1 24:1 25:0.92 26:1 27:0.92 28:1 29:0.916667 30:1 31:0.913043 32:1 33:1 34:1 35:0.909091 36:0.904762 37:0.909091 38:0.904762 39:0.904762 40:1 41:1 42:1 43:1 44:0.894737 45:1 46:1 47:0.888889 48:0.882353 49:1 50:1 51:0.875 52:1 53:1 54:1 55:1 56:1 57:0.866667 58:0.857143 59:1 60:0.846154 61:1 62:0.846154 63:1 64:0.846154 65:0.846154 66:1 67:1 68:0.833333 69:0.833333 70:0.833333 71:1 72:1 73:1 74:1 75:1 76:1 77:1 78:1 79:1 80:1 81:1 82:0.818182 83:1 84:1 85:1 86:1 87:1 88:0.8 89:0.8 90:1 91:0.777778 92:0.777778 93:0.777778 94:0.777778 95:0.777778 96:0.994975 97:0.995012 98:1 99:1 100:0.995012 101:1 102:1 103:1 104:1 105:1 106:1 107:1 108:1 109:1 110:1 111:1 112:1 113:1 114:1 115:0.995025 116:1 117:1 118:0.995025 119:0.995025 120:0.995025 121:0.995025 122:0.995025 123:0.995025 124:0.995025 125:0.995025 126:0.995025 127:1 128:1 
0.5481332629174094 0 1:1 2:0.333333 3:1 4:1 5:1 6:1 7:1 8:1 9:1 10:1 11:1 12:0.935484 13:0.935484 14:1 15:1 16:1 17:0.933333 18:1 19:1 20:0.931034 21:0.928571 22:1 23:1 24:0.92 25:0.92 26:1 27:1 28:1 29:0.916667 30:0.916667 31:1 32:1 33:1 34:1 35:0.909091 36:1 37:0.909091 38:1 39:1 40:1 41:1 42:1 43:0.894737 44:1 45:0.888889 46:1 47:1 48:1 49:0.882353 50:1 51:1 52:1 53:1 54:1 55:1 56:1 57:0.866667 58:0.857143 59:0.857143 60:1 61:1 62:1 63:1 64:0.846154 65:0.846154 66:0.846154 67:1 68:0.833333 69:0.833333 70:1 71:0.833333 72:1 73:1 74:1 75:1 76:1 77:1 78:1 79:1 80:1 81:1 82:0.818182 83:1 84:1 85:1 86:1 87:1 88:0.8 89:0.8 90:1 91:0.777778 92:0.777778 93:0.777778 94:1 95:0.777778 96:1 97:1 98:0.995012 99:0.995012 100:1 101:1 102:1 103:1 104:1 105:1 106:0.995012 107:1 108:1 109:1 110:1 111:1 112:0.995025 113:1 114:1 115:0.995025 116:1 117:1 118:0.995025 119:0.995025 120:0.995025 121:1 122:1 123:0.995025 124:1 125:1 126:0.995025 127:1 128:0.995025 
2 0 1:1 2:1 3:1 4:1 5:0.8 6:0.857143 7:0.894737 8:1 9:0.916667 10:1 11:1 12:0.870968 13:0.935484 14:0.935484 15:1 16:1 17:0.933333 18:1 19:0.933333 20:0.931034 21:0.928571 22:1 23:1 24:1 25:0.92 26:1 27:0.92 28:1 29:0.916667 30:1 31:0.913043 32:1 33:1 34:1 35:0.909091 36:0.904762 37:0.909091 38:0.904762 39:0.904762 40:1 41:1 42:1 43:1 44:0.894737 45:1 46:1 47:0.888889 48:0.882353 49:1 50:0.875 51:1 52:1 53:1 54:1 55:1 56:1 57:0.866667 58:0.857143 59:0.857143 60:0.846154 61:1 62:0.846154 63:1 64:0.846154 65:0.846154 66:0.846154 67:0.833333 68:0.833333 69:1 70:0.833333 71:1 72:1 73:1 74:1 75:1 76:1 77:1 78:1 79:1 80:1 81:1 82:0.818182 83:1 84:1 85:1 86:1 87:1 88:0.8 89:0.8 90:1 91:0.777778 92:0.777778 93:0.777778 94:1 95:0.777778 96:0.994975 97:0.995012 98:1 99:1 100:1 101:0.995012 102:1 103:1 104:0.995012 105:1 106:1 107:1 108:1 109:1 110:1 111:1 112:0.995025 113:1 114:1 115:0.995025 116:1 117:1 118:0.995025 119:0.995025 120:0.995025 121:0.995025 122:0.995025 123:1 124:0.995025 125:0.995025 126:0.995025 127:1 128:1 
1.883854472933373 0.07219526330585994 1:1 2:1 3:1 4:1 5:1 6:0.857143 7:0.894737 8:1 9:0.916667 10:1 11:0.931034 12:0.870968 13:0.935484 14:0.935484 15:0.935484 16:1 17:0.933333 18:1 19:0.933333 20:0.931034 21:0.928571 22:1 23:1 24:1 25:0.92 26:1 27:0.92 28:1 29:1 30:1 31:0.913043 32:0.909091 33:1 34:1 35:0.909091 36:0.904762 37:0.909091 38:0.904762 39:0.904762 40:1 41:1 42:1 43:0.894737 44:0.894737 45:1 46:1 47:0.888889 48:0.882353 49:1 50:1 51:0.875 52:1 53:1 54:1 55:1 56:1 57:0.866667 58:0.857143 59:0.857143 60:0.846154 61:1 62:1 63:1 64:0.846154 65:0.846154 66:0.846154 67:1 68:0.833333 69:0.833333 70:0.833333 71:1 72:1 73:1 74:1 75:1 76:1 77:1 78:1 79:1 80:1 81:1 82:0.818182 83:1 84:1 85:1 86:1 87:1 88:0.8 89:0.8 90:1 91:0.777778 92:0.777778 93:0.777778 94:0.777778 95:0.777778 96:0.994975 97:1 98:1 99:1 100:1 101:1 102:1 103:1 104:0.995012 105:1 106:1 107:1 108:1 109:1 110:1 111:1 112:0.995025 113:1 114:1 115:0.995025 116:1 117:1 118:0.995025 119:0.995025 120:0.995025 121:0.995025 122:0.995025 123:0.995025 124:0.995025 125:0.995025 126:0.995025 127:1 128:1 
1.463879146346409 0 1:1 2:0.666667 3:1 4:1 5:1 6:1 7:1 8:0.904762 9:1 10:1 11:1 12:0.935484 13:1 14:1 15:1 16:1 17:0.933333 18:1 19:1 20:0.931034 21:0.928571 22:1 23:1 24:0.92 25:0.92 26:1 27:1 28:1 29:0.916667 30:0.916667 31:0.913043 32:1 33:1 34:1 35:1 36:1 37:0.909091 38:1 39:1 40:1 41:1 42:1 43:0.894737 44:1 45:0.888889 46:1 47:0.888889 48:0.882353 49:0.882353 50:1 51:1 52:1 53:1 54:1 55:1 56:1 57:0.866667 58:1 59:0.857143 60:1 61:1 62:1 63:1 64:0.846154 65:0.846154 66:0.846154 67:0.833333 68:0.833333 69:0.833333 70:1 71:1 72:0.833333 73:1 74:0.818182 75:1 76:1 77:1 78:1 79:1 80:1 81:1 82:0.818182 83:1 84:1 85:1 86:1 87:1 88:0.8 89:1 90:1 91:0.777778 92:0.777778 93:0.777778 94:0.777778 95:0.777778 96:1 97:1 98:0.995012 99:0.995012 100:1 101:1 102:0.995012 103:1 104:1 105:0.995012 106:1 107:1 108:1 109:1 110:1 111:1 112:0.995025 113:1 114:1 115:0.995025 116:1 117:1 118:0.995025 119:0.995025 120:0.995025 121:0.995025 122:1 123:0.995025 124:1 125:1 126:0.995025 127:1 128:0.995025 
1.485594162080045 0 1:1 2:1 3:1 4:1 5:0.8 6:0.857143 7:0.894737 8:1 9:0.916667 10:1 11:0.931034 12:0.870968 13:0.935484 14:0.935484 15:0.935484 16:0.933333 17:0.933333 18:1 19:0.933333 20:0.931034 21:0.928571 22:1 23:1 24:1 25:0.92 26:1 27:0.92 28:1 29:1 30:1 31:0.913043 32:1 33:1 34:1 35:0.909091 36:0.904762 37:0.909091 38:0.904762 39:1 40:1 41:1 42:1 43:1 44:1 45:1 46:1 47:0.888889 48:0.882353 49:1 50:0.875 51:1 52:1 53:1 54:1 55:1 56:1 57:0.866667 58:0.857143 59:0.857143 60:0.846154 61:1 62:1 63:0.846154 64:0.846154 65:0.846154 66:0.846154 67:1 68:0.833333 69:0.833333 70:1 71:1 72:1 73:1 74:1 75:1 76:1 77:1 78:1 79:1 80:1 81:1 82:0.818182 83:1 84:1 85:1 86:1 87:1 88:0.8 89:0.8 90:1 91:0.777778 92:0.777778 93:1 94:0.777778 95:0.777778 96:0.994975 97:0.995012 98:1 99:1 100:0.995012 101:1 102:1 103:1 104:1 105:1 106:1 107:1 108:1 109:0.995025 110:1 111:1 112:0.995025 113:1 114:1 115:0.995025 116:1 117:1 118:0.995025 119:0.995025 120:0.995025 121:0.995025 122:0.995025 123:1 124:0.995025 125:0.995025 126:0.995025 127:0.995025 128:1 
2 1.876702173358409 1:1 2:0.333333 3:1 4:1 5:1 6:1 7:1 8:1 9:1 10:1 11:1 12:0.935484 13:0.935484 14:1 15:1 16:1 17:0.933333 18:1 19:0.933333 20:0.931034 21:0.928571 22:1 23:1 24:0.92 25:1 26:1 27:1 28:1 29:0.916667 30:0.916667 31:0.913043 32:1 33:1 34:1 35:0.909091 36:1 37:0.909091 38:0.904762 39:1 40:1 41:1 42:1 43:0.894737 44:1 45:0.888889 46:1 47:0.888889 48:0.882353 49:1 50:1 51:1 52:1 53:1 54:1 55:1 56:1 57:0.866667 58:1 59:0.857143 60:1 61:1 62:1 63:1 64:0.846154 65:0.846154 66:0.846154 67:0.833333 68:0.833333 69:0.833333 70:1 71:1 72:0.833333 73:1 74:0.818182 75:1 76:1 77:1 78:1 79:1 80:1 81:1 82:0.818182 83:1 84:1 85:1 86:1 87:1 88:0.8 89:1 90:1 91:0.777778 92:0.777778 93:0.777778 94:1 95:0.777778 96:1 97:1 98:0.995012 99:0.995012 100:1 101:1 102:0.995012 103:0.995012 104:1 105:0.995012 106:0.995012 107:0.995012 108:1 109:1 110:1 111:1 112:0.995025 113:1 114:1 115:0.995025 116:1 117:1 118:0.995025 119:0.995025 120:0.995025 121:0.995025 122:0.995025 123:0.995025 124:0.995025 125:1 126:0.995025 127:1 128:0.995025 
0.3745533257689144 0 1:1 2:0.666667 3:1 4:1 5:1 6:1 7:1 8:0.904762 9:1 10:1 11:1 12:0.935484 13:0.935484 14:1 15:1 16:1 17:0.933333 18:1 19:1 20:0.931034 21:0.928571 22:1 23:1 24:0.92 25:0.92 26:1 27:0.92 28:1 29:0.916667 30:0.916667 31:1 32:1 33:1 34:1 35:1 36:1 37:0.909091 38:1 39:1 40:1 41:1 42:1 43:0.894737 44:1 45:1 46:1 47:0.888889 48:0.882353 49:1 50:1 51:1 52:1 53:1 54:1 55:1 56:1 57:0.866667 58:1 59:0.857143 60:1 61:1 62:1 63:1 64:0.846154 65:0.846154 66:0.846154 67:0.833333 68:0.833333 69:0.833333 70:1 71:0.833333 72:0.833333 73:1 74:0.818182 75:1 76:1 77:1 78:1 79:1 80:1 81:1 82:0.818182 83:1 84:1 85:1 86:1 87:1 88:0.8 89:1 90:1 91:1 92:0.777778 93:0.777778 94:0.777778 95:0.777778 96:1 97:1 98:1 99:0.995012 100:1 101:1 102:1 103:1 104:1 105:0.995012 106:0.995012 107:1 108:0.995012 109:1 110:1 111:1 112:0.995025 113:1 114:1 115:0.995025 116:1 117:1 118:0.995025 119:0.995025 120:0.995025 121:0.995025 122:0.995025 123:0.995025 124:1 125:1 126:0.995025 127:0.995025 128:0.995025 
2 1.633163218594112 1:1 2:1 3:1 4:0.714286 5:0.8 6:0.857143 7:0.894737 8:1 9:0.916667 10:1 11:1 12:0.870968 13:0.935484 14:0.935484 15:1 16:1 17:0.933333 18:1 19:0.933333 20:0.931034 21:0.928571 22:1 23:1 24:1 25:0.92 26:1 27:0.92 28:1 29:0.916667 30:1 31:0.913043 32:0.909091 33:1 34:1 35:0.909091 36:0.904762 37:0.909091 38:0.904762 39:1 40:1 41:1 42:1 43:1 44:0.894737 45:1 46:1 47:0.888889 48:0.882353 49:1 50:1 51:1 52:1 53:1 54:1 55:1 56:1 57:0.866667 58:0.857143 59:1 60:0.846154 61:1 62:1 63:1 64:0.846154 65:0.846154 66:1 67:0.833333 68:1 69:0.833333 70:0.833333 71:1 72:1 73:1 74:1 75:1 76:1 77:1 78:1 79:1 80:1 81:1 82:0.818182 83:1 84:1 85:1 86:1 87:1 88:0.8 89:0.8 90:1 91:0.777778 92:0.777778 93:0.777778 94:0.777778 95:0.777778 96:0.994975 97:0.995012 98:1 99:1 100:1 101:1 102:1 103:1 104:1 105:1 106:1 107:1 108:1 109:1 110:1 111:1 112:1 113:1 114:1 115:0.995025 116:1 117:1 118:0.995025 119:0.995025 120:0.995025 121:1 122:0.995025 123:1 124:0.995025 125:0.995025 126:0.995025 127:1 128:1 
0 0.7403259910788108 1:1 2:0.333333 3:1 4:1 5:1 6:1 7:1 8:1 9:1 10:1 11:1 12:0.935484 13:0.935484 14:1 15:1 16:1 17:0.933333 18:1 19:1 20:0.931034 21:0.928571 22:1 23:1 24:1 25:0.92 26:1 27:1 28:1 29:0.916667 30:0.916667 31:0.913043 32:1 33:1 34:1 35:0.909091 36:1 37:1 38:1 39:1 40:1 41:1 42:1 43:0.894737 44:1 45:1 46:1 47:0.888889 48:0.882353 49:1 50:1 51:1 52:1 53:1 54:1 55:1 56:1 57:0.866667 58:1 59:0.857143 60:1 61:1 62:1 63:1 64:0.846154 65:0.846154 66:0.846154 67:0.833333 68:1 69:0.833333 70:1 71:0.833333 72:0.833333 73:1 74:0.818182 75:1 76:1 77:1 78:1 79:1 80:1 81:1 82:0.818182 83:1 84:1 85:1 86:1 87:1 88:0.8 89:1 90:1 91:0.777778 92:0.777778 93:0.777778 94:1 95:0.777778 96:1 97:1 98:0.995012 99:0.995012 100:1 101:1 102:0.995012 103:0.995012 104:1 105:1 106:1 107:1 108:1 109:1 110:1 111:1 112:0.995025 113:1 114:1 115:0.995025 116:1 117:1 118:0.995025 119:0.995025 120:0.995025 121:0.995025 122:0.995025 123:0.995025 124:1 125:1 126:0.995025 127:0.995025 128:0.995025 
2 1.150333097604309 1:1 2:1 3:1 4:1 5:0.8 6:0.857143 7:0.894737 8:1 9:0.916667 10:1 11:1 12:0.870968 13:0.935484 14:0.935484 15:0.935484 16:1 17:0.933333 18:1 19:0.933333 20:0.931034 21:0.928571 22:1 23:1 24:1 25:0.92 26:0.92 27:0.92 28:1 29:0.916667 30:1 31:0.913043 32:1 33:1 34:1 35:0.909091 36:0.904762 37:0.909091 38:0.904762 39:0.904762 40:1 41:1 42:1 43:1 44:0.894737 45:1 46:1 47:0.888889 48:0.882353 49:1 50:1 51:0.875 52:1 53:1 54:1 55:1 56:1 57:0.866667 58:0.857143 59:1 60:0.846154 61:0.846154 62:1 63:0.846154 64:0.846154 65:0.846154 66:0.846154 67:0.833333 68:0.833333 69:0.833333 70:1 71:1 72:1 73:1 74:1 75:1 76:1 77:1 78:1 79:1 80:1 81:1 82:0.818182 83:1 84:1 85:1 86:1 87:1 88:0.8 89:0.8 90:1 91:0.777778 92:0.777778 93:0.777778 94:0.777778 95:0.777778 96:0.994975 97:0.995012 98:1 99:1 100:1 101:0.995012 102:1 103:1 104:0.995012 105:1 106:1 107:1 108:1 109:0.995025 110:1 111:1 112:0.995025 113:1 114:1 115:0.995025 116:1 117:1 118:0.995025 119:0.995025 120:0.995025 121:0.995025 122:0.995025 123:0.995025 124:0.995025 125:0.995025 126:0.995025 127:1 128:1 
1.057766648414733 0 1:1 2:1 3:1 4:1 5:0.8 6:0.857143 7:0.894737 8:1 9:0.916667 10:1 11:1 12:0.935484 13:0.935484 14:0.935484 15:1 16:1 17:0.933333 18:1 19:0.933333 20:0.931034 21:0.928571 22:1 23:1 24:1 25:0.92 26:1 27:0.92 28:1 29:0.916667 30:1 31:0.913043 32:1 33:1 34:1 35:0.909091 36:0.904762 37:0.909091 38:0.904762 39:0.904762 40:1 41:1 42:1 43:1 44:0.894737 45:1 46:1 47:0.888889 48:0.882353 49:1 50:0.875 51:1 52:1 53:1 54:1 55:1 56:1 57:0.866667 58:0.857143 59:1 60:0.846154 61:0.846154 62:0.846154 63:0.846154 64:0.846154 65:0.846154 66:0.846154 67:0.833333 68:0.833333 69:0.833333 70:0.833333 71:1 72:1 73:1 74:1 75:1 76:1 77:1 78:1 79:1 80:1 81:1 82:0.818182 83:1 84:1 85:1 86:1 87:1 88:0.8 89:0.8 90:1 91:0.777778 92:0.777778 93:0.777778 94:0.777778 95:1 96:0.994975 97:1 98:1 99:1 100:0.995012 101:1 102:1 103:1 104:1 105:1 106:1 107:1 108:1 109:1 110:1 111:1 112:0.995025 113:1 114:1 115:0.995025 116:1 117:1 118:0.995025 119:0.995025 120:0.995025 121:0.995025 122:0.995025 123:1 124:0.995025 125:0.995025 126:0.995025 127:1 128:1 
0.08858990599666895 0 1:1 2:1 3:1 4:1 5:0.8 6:0.857143 7:0.894737 8:1 9:0.916667 10:1 11:1 12:0.870968 13:0.935484 14:0.935484 15:1 16:0.933333 17:0.933333 18:1 19:0.933333 20:0.931034 21:0.928571 22:1 23:1 24:1 25:0.92 26:1 27:0.92 28:1 29:0.916667 30:1 31:0.913043 32:1 33:1 34:1 35:0.909091 36:0.904762 37:0.909091 38:0.904762 39:1 40:1 41:1 42:1 43:1 44:0.894737 45:1 46:1 47:0.888889 48:0.882353 49:1 50:1 51:0.875 52:1 53:1 54:1 55:1 56:1 57:0.866667 58:0.857143 59:1 60:0.846154 61:1 62:1 63:1 64:0.846154 65:0.846154 66:0.846154 67:1 68:0.833333 69:0.833333 70:1 71:1 72:1 73:1 74:1 75:1 76:1 77:1 78:1 79:1 80:1 81:1 82:0.818182 83:1 84:1 85:1 86:1 87:1 88:0.8 89:0.8 90:1 91:0.777778 92:0.777778 93:0.777778 94:0.777778 95:0.777778 96:0.994975 97:0.995012 98:1 99:1 100:0.995012 101:1 102:1 103:1 104:0.995012 105:1 106:1 107:1 108:1 109:0.995025 110:1 111:1 112:0.995025 113:1 114:1 115:0.995025 116:1 117:1 118:0.995025 119:0.995025 120:0.995025 121:0.995025 122:0.995025 123:0.995025 124:0.995025 125:0.995025 126:0.995025 127:1 128:1 
2 0 1:1 2:1 3:1 4:1 5:0.8 6:1 7:0.894737 8:1 9:0.916667 10:1 11:1 12:0.870968 13:0.935484 14:0.935484 15:0.935484 16:0.933333 17:0.933333 18:1 19:0.933333 20:0.931034 21:0.928571 22:1 23:1 24:1 25:0.92 26:0.92 27:0.92 28:1 29:0.916667 30:1 31:0.913043 32:1 33:1 34:1 35:0.909091 36:0.904762 37:0.909091 38:0.904762 39:1 40:1 41:1 42:1 43:1 44:0.894737 45:1 46:1 47:0.888889 48:0.882353 49:1 50:0.875 51:1 52:1 53:1 54:1 55:1 56:1 57:0.866667 58:0.857143 59:1 60:0.846154 61:1 62:1 63:1 64:0.846154 65:0.846154 66:0.846154 67:1 68:0.833333 69:1 70:0.833333 71:1 72:1 73:1 74:1 75:1 76:1 77:1 78:1 79:1 80:1 81:1 82:0.818182 83:1 84:1 85:1 86:1 87:1 88:0.8 89:0.8 90:1 91:0.777778 92:1 93:0.777778 94:0.777778 95:0.777778 96:0.994975 97:0.995012 98:1 99:0.995012 100:0.995012 101:1 102:1 103:1 104:0.995012 105:1 106:1 107:1 108:1 109:0.995025 110:1 111:1 112:0.995025 113:1 114:1 115:0.995025 116:1 117:1 118:0.995025 119:0.995025 120:0.995025 121:1 122:1 123:0.995025 124:0.995025 125:0.995025 126:0.995025 127:1 128:1 
2 2 1:1 2:1 3:1 4:0.714286 5:0.8 6:0.857143 7:0.894737 8:1 9:0.916667 10:1 11:1 12:0.870968 13:0.935484 14:0.935484 15:1 16:1 17:0.933333 18:1 19:0.933333 20:0.931034 21:0.928571 22:1 23:1 24:1 25:0.92 26:1 27:0.92 28:1 29:1 30:1 31:0.913043 32:1 33:1 34:1 35:0.909091 36:0.904762 37:0.909091 38:0.904762 39:1 40:1 41:1 42:1 43:1 44:0.894737 45:1 46:1 47:0.888889 48:0.882353 49:1 50:1 51:1 52:1 53:1 54:1 55:1 56:1 57:0.866667 58:0.857143 59:0.857143 60:0.846154 61:0.846154 62:0.846154 63:1 64:0.846154 65:0.846154 66:0.846154 67:0.833333 68:0.833333 69:1 70:1 71:1 72:1 73:1 74:1 75:1 76:1 77:1 78:1 79:1 80:1 81:1 82:0.818182 83:1 84:1 85:1 86:1 87:1 88:0.8 89:0.8 90:1 91:0.777778 92:1 93:0.777778 94:1 95:0.777778 96:0.994975 97:0.995012 98:1 99:1 100:1 101:0.995012 102:1 103:1 104:1 105:1 106:1 107:1 108:1 109:0.995025 110:1 111:1 112:1 113:1 114:1 115:0.995025 116:1 117:1 118:0.995025 119:0.995025 120:0.995025 121:0.995025 122:0.995025 123:0.995025 124:0.995025 125:0.995025 126:0.995025 127:1 128:1 
0.647376296916979 0 1:1 2:0.666667 3:1 4:1 5:1 6:1 7:1 8:0.904762 9:1 10:1 11:1 12:0.935484 13:0.935484 14:1 15:1 16:1 17:1 18:1 19:0.933333 20:0.931034 21:0.928571 22:1 23:1 24:1 25:0.92 26:1 27:1 28:1 29:0.916667 30:0.916667 31:1 32:1 33:1 34:1 35:1 36:1 37:1 38:1 39:1 40:1 41:1 42:1 43:0.894737 44:1 45:0.888889 46:1 47:0.888889 48:0.882353 49:1 50:1 51:1 52:1 53:1 54:1 55:1 56:1 57:0.866667 58:1 59:0.857143 60:1 61:1 62:1 63:1 64:0.846154 65:0.846154 66:0.846154 67:0.833333 68:0.833333 69:0.833333 70:1 71:0.833333 72:0.833333 73:1 74:0.818182 75:1 76:1 77:1 78:1 79:1 80:1 81:1 82:0.818182 83:1 84:1 85:1 86:1 87:1 88:0.8 89:0.8 90:1 91:0.777778 92:0.777778 93:0.777778 94:1 95:0.777778 96:1 97:1 98:1 99:0.995012 100:1 101:1 102:1 103:1 104:1 105:1 106:0.995012 107:1 108:1 109:1 110:1 111:1 112:0.995025 113:1 114:1 115:0.995025 116:1 117:1 118:0.995025 119:0.995025 120:0.995025 121:0.995025 122:0.995025 123:0.995025 124:1 125:1 126:0.995025 127:0.995025 128:0.995025 
1.497979366041876 0.679894584882724 1:1 2:1 3:1 4:1 5:0.8 6:0.857143 7:0.894737 8:1 9:0.916667 10:1 11:0.931034 12:0.870968 13:0.935484 14:0.935484 15:1 16:1 17:0.933333 18:1 19:0.933333 20:0.931034 21:0.928571 22:1 23:1 24:1 25:0.92 26:1 27:0.92 28:1 29:0.916667 30:1 31:0.913043 32:1 33:1 34:1 35:0.909091 36:0.904762 37:0.909091 38:0.904762 39:0.904762 40:1 41:1 42:1 43:1 44:0.894737 45:1 46:1 47:0.888889 48:0.882353 49:1 50:1 51:1 52:1 53:1 54:1 55:1 56:1 57:0.866667 58:0.857143 59:0.857143 60:0.846154 61:1 62:1 63:1 64:0.846154 65:0.846154 66:0.846154 67:1 68:0.833333 69:1 70:1 71:1 72:1 73:1 74:1 75:1 76:1 77:1 78:1 79:1 80:1 81:1 82:0.818182 83:1 84:1 85:1 86:1 87:1 88:0.8 89:0.8 90:1 91:0.777778 92:0.777778 93:0.777778 94:0.777778 95:0.777778 96:0.994975 97:0.995012 98:1 99:1 100:0.995012 101:1 102:1 103:1 104:1 105:1 106:1 107:1 108:1 109:1 110:1 111:1 112:1 113:1 114:1 115:0.995025 116:1 117:1 118:0.995025 119:0.995025 120:0.995025 121:0.995025 122:0.995025 123:1 124:0.995025 125:0.995025 126:0.995025 127:0.995025 128:1 
2 0 1:1 2:0.666667 3:1 4:1 5:1 6:1 7:1 8:0.904762 9:1 10:1 11:1 12:0.935484 13:0.935484 14:1 15:1 16:1 17:0.933333 18:1 19:0.933333 20:0.931034 21:0.928571 22:1 23:1 24:0.92 25:0.92 26:1 27:1 28:1 29:0.916667 30:0.916667 31:0.913043 32:1 33:1 34:1 35:0.909091 36:1 37:0.909091 38:1 39:1 40:1 41:1 42:1 43:0.894737 44:1 45:0.888889 46:1 47:0.888889 48:0.882353 49:0.882353 50:1 51:1 52:1 53:1 54:1 55:1 56:1 57:0.866667 58:1 59:0.857143 60:1 61:1 62:1 63:1 64:0.846154 65:0.846154 66:0.846154 67:0.833333 68:0.833333 69:0.833333 70:1 71:0.833333 72:0.833333 73:1 74:0.818182 75:1 76:1 77:1 78:1 79:1 80:1 81:1 82:0.818182 83:1 84:1 85:1 86:1 87:1 88:0.8 89:0.8 90:1 91:0.777778 92:0.777778 93:0.777778 94:1 95:0.777778 96:1 97:1 98:1 99:0.995012 100:1 101:1 102:1 103:1 104:1 105:1 106:1 107:1 108:1 109:1 110:1 111:1 112:0.995025 113:1 114:1 115:0.995025 116:1 117:1 118:1 119:0.995025 120:0.995025 121:0.995025 122:0.995025 123:0.995025 124:1 125:1 126:0.995025 127:0.995025 128:0.995025 
1.018267695216528 0 1:1 2:0.666667 3:1 4:1 5:1 6:1 7:1 8:1 9:1 10:1 11:1 12:0.935484 13:0.935484 14:1 15:1 16:1 17:0.933333 18:1 19:1 20:0.931034 21:0.928571 22:1 23:1 24:0.92 25:1 26:1 27:1 28:1 29:0.916667 30:0.916667 31:1 32:1 33:1 34:1 35:1 36:1 37:0.909091 38:0.904762 39:1 40:1 41:1 42:1 43:0.894737 44:0.894737 45:0.888889 46:1 47:0.888889 48:0.882353 49:1 50:1 51:1 52:1 53:1 54:1 55:1 56:1 57:0.866667 58:1 59:0.857143 60:1 61:1 62:1 63:1 64:0.846154 65:0.846154 66:0.846154 67:0.833333 68:1 69:0.833333 70:1 71:0.833333 72:1 73:1 74:0.818182 75:1 76:1 77:1 78:1 79:1 80:1 81:1 82:0.818182 83:1 84:1 85:1 86:1 87:1 88:0.8 89:0.8 90:1 91:0.777778 92:0.777778 93:0.777778 94:1 95:0.777778 96:1 97:1 98:0.995012 99:0.995012 100:1 101:1 102:0.995012 103:1 104:1 105:1 106:1 107:1 108:1 109:1 110:1 111:1 112:0.995025 113:1 114:1 115:0.995025 116:1 117:1 118:0.995025 119:0.995025 120:0.995025 121:0.995025 122:0.995025 123:0.995025 124:1 125:1 126:0.995025 127:0.995025 128:0.995025 
0.3670692104360024 0 1:1 2:1 3:1 4:1 5:1 6:0.857143 7:0.894737 8:1 9:0.916667 10:1 11:0.931034 12:0.870968 13:0.935484 14:0.935484 15:0.935484 16:0.933333 17:0.933333 18:1 19:0.933333 20:0.931034 21:0.928571 22:1 23:1 24:1 25:0.92 26:1 27:0.92 28:1 29:1 30:1 31:0.913043 32:1 33:1 34:1 35:0.909091 36:0.904762 37:0.909091 38:0.904762 39:1 40:1 41:1 42:1 43:1 44:0.894737 45:1 46:1 47:0.888889 48:0.882353 49:1 50:0.875 51:1 52:1 53:1 54:1 55:1 56:1 57:0.866667 58:0.857143 59:0.857143 60:0.846154 61:0.846154 62:0.846154 63:0.846154 64:0.846154 65:0.846154 66:0.846154 67:0.833333 68:0.833333 69:0.833333 70:1 71:1 72:1 73:1 74:1 75:1 76:1 77:1 78:1 79:1 80:1 81:1 82:0.818182 83:1 84:1 85:1 86:1 87:1 88:0.8 89:0.8 90:1 91:0.777778 92:1 93:0.777778 94:1 95:1 96:0.994975 97:1 98:1 99:1 100:1 101:0.995012 102:1 103:1 104:1 105:1 106:1 107:1 108:1 109:1 110:1 111:1 112:0.995025 113:1 114:1 115:0.995025 116:1 117:1 118:0.995025 119:0.995025 120:0.995025 121:0.995025 122:0.995025 123:1 124:0.995025 125:0.995025 126:0.995025 127:1 128:1 
0.6723978328510106 0 1:1 2:0.666667 3:1 4:1 5:1 6:1 7:1 8:0.904762 9:1 10:1 11:1 12:0.935484 13:0.935484 14:1 15:1 16:1 17:0.933333 18:1 19:1 20:0.931034 21:0.928571 22:1 23:1 24:0.92 25:0.92 26:1 27:1 28:1 29:0.916667 30:0.916667 31:0.913043 32:1 33:1 34:1 35:1 36:1 37:0.909091 38:1 39:1 40:1 41:1 42:1 43:0.894737 44:0.894737 45:1 46:1 47:0.888889 48:0.882353 49:0.882353 50:1 51:1 52:1 53:1 54:1 55:1 56:1 57:0.866667 58:1 59:0.857143 60:1 61:1 62:1 63:1 64:0.846154 65:0.846154 66:0.846154 67:0.833333 68:1 69:0.833333 70:1 71:0.833333 72:0.833333 73:1 74:0.818182 75:1 76:1 77:1 78:1 79:1 80:1 81:1 82:0.818182 83:1 84:1 85:1 86:1 87:1 88:0.8 89:1 90:1 91:0.777778 92:0.777778 93:0.777778 94:0.777778 95:0.777778 96:1 97:1 98:1 99:1 100:1 101:1 102:1 103:1 104:1 105:0.995012 106:0.995012 107:1 108:1 109:1 110:1 111:1 112:0.995025 113:1 114:1 115:0.995025 116:1 117:1 118:0.995025 119:0.995025 120:0.995025 121:1 122:0.995025 123:0.995025 124:0.995025 125:1 126:0.995025 127:1 128:0.995025 
2 0 1:1 2:0.666667 3:1 4:1 5:1 6:1 7:1 8:0.904762 9:1 10:1 11:1 12:0.935484 13:0.935484 14:1 15:1 16:1 17:0.933333 18:1 19:0.933333 20:0.931034 21:0.928571 22:1 23:1 24:0.92 25:0.92 26:1 27:1 28:1 29:0.916667 30:0.916667 31:0.913043 32:1 33:1 34:1 35:0.909091 36:1 37:0.909091 38:1 39:1 40:1 41:1 42:1 43:0.894737 44:1 45:0.888889 46:1 47:0.888889 48:1 49:0.882353 50:1 51:1 52:1 53:1 54:1 55:1 56:1 57:0.866667 58:1 59:0.857143 60:1 61:1 62:1 63:1 64:0.846154 65:0.846154 66:0.846154 67:0.833333 68:0.833333 69:0.833333 70:1 71:1 72:0.833333 73:1 74:0.818182 75:1 76:1 77:1 78:1 79:1 80:1 81:1 82:0.818182 83:1 84:1 85:1 86:1 87:1 88:0.8 89:0.8 90:1 91:1 92:0.777778 93:0.777778 94:0.777778 95:0.777778 96:1 97:1 98:0.995012 99:0.995012 100:1 101:1 102:1 103:1 104:1 105:1 106:0.995012 107:1 108:0.995012 109:1 110:1 111:1 112:0.995025 113:1 114:1 115:0.995025 116:1 117:1 118:0.995025 119:0.995025 120:0.995025 121:0.995025 122:0.995025 123:0.995025 124:1 125:1 126:1 127:1 128:0.995025 
2 0 1:1 2:1 3:1 4:1 5:0.8 6:0.857143 7:0.894737 8:1 9:0.916667 10:1 11:1 12:0.870968 13:0.935484 14:0.935484 15:0.935484 16:1 17:0.933333 18:1 19:0.933333 20:0.931034 21:0.928571 22:1 23:1 24:1 25:0.92 26:1 27:0.92 28:1 29:0.916667 30:1 31:0.913043 32:1 33:1 34:1 35:0.909091 36:0.904762 37:0.909091 38:0.904762 39:0.904762 40:1 41:1 42:1 43:1 44:0.894737 45:1 46:1 47:0.888889 48:0.882353 49:1 50:0.875 51:1 52:1 53:1 54:1 55:1 56:1 57:0.866667 58:0.857143 59:0.857143 60:0.846154 61:1 62:1 63:0.846154 64:0.846154 65:0.846154 66:0.846154 67:1 68:0.833333 69:0.833333 70:0.833333 71:1 72:1 73:1 74:1 75:1 76:1 77:1 78:1 79:1 80:1 81:1 82:0.818182 83:1 84:1 85:1 86:1 87:1 88:0.8 89:0.8 90:1 91:0.777778 92:1 93:0.777778 94:0.777778 95:0.777778 96:0.994975 97:0.995012 98:1 99:1 100:0.995012 101:0.995012 102:1 103:1 104:1 105:1 106:1 107:1 108:1 109:1 110:1 111:1 112:1 113:1 114:1 115:0.995025 116:1 117:1 118:0.995025 119:0.995025 120:0.995025 121:0.995025 122:0.995025 123:1 124:0.995025 125:0.995025 126:0.995025 127:0.995025 128:1 
1.582126220834813 0 1:1 2:1 3:1 4:1 5:0.8 6:0.857143 7:0.894737 8:1 9:0.916667 10:1 11:0.931034 12:0.870968 13:0.935484 14:0.935484 15:0.935484 16:1 17:0.933333 18:1 19:0.933333 20:0.931034 21:0.928571 22:1 23:1 24:1 25:0.92 26:1 27:0.92 28:1 29:0.916667 30:1 31:0.913043 32:1 33:1 34:1 35:0.909091 36:0.904762 37:0.909091 38:0.904762 39:0.904762 40:1 41:1 42:1 43:0.894737 44:0.894737 45:1 46:1 47:0.888889 48:0.882353 49:1 50:1 51:1 52:1 53:1 54:1 55:1 56:1 57:0.866667 58:0.857143 59:1 60:0.846154 61:0.846154 62:1 63:0.846154 64:0.846154 65:0.846154 66:0.846154 67:1 68:0.833333 69:0.833333 70:1 71:1 72:1 73:1 74:1 75:1 76:1 77:1 78:1 79:1 80:1 81:1 82:0.818182 83:1 84:1 85:1 86:1 87:1 88:0.8 89:0.8 90:1 91:0.777778 92:1 93:0.777778 94:0.777778 95:0.777778 96:0.994975 97:0.995012 98:1 99:1 100:1 101:0.995012 102:1 103:1 104:0.995012 105:1 106:1 107:1 108:1 109:1 110:1 111:1 112:1 113:1 114:1 115:0.995025 116:1 117:1 118:0.995025 119:0.995025 120:0.995025 121:0.995025 122:0.995025 123:0.995025 124:0.995025 125:0.995025 126:0.995025 127:1 128:1 
2 0 1:1 2:1 3:1 4:1 5:0.8 6:0.857143 7:0.894737 8:1 9:0.916667 10:1 11:0.931034 12:0.870968 13:0.935484 14:0.935484 15:1 16:1 17:0.933333 18:1 19:0.933333 20:0.931034 21:0.928571 22:1 23:1 24:1 25:0.92 26:1 27:0.92 28:1 29:1 30:1 31:0.913043 32:0.909091 33:1 34:1 35:0.909091 36:0.904762 37:0.909091 38:0.904762 39:0.904762 40:1 41:1 42:1 43:0.894737 44:0.894737 45:1 46:1 47:0.888889 48:0.882353 49:1 50:0.875 51:1 52:1 53:1 54:1 55:1 56:1 57:0.866667 58:0.857143 59:1 60:0.846154 61:0.846154 62:0.846154 63:1 64:0.846154 65:0.846154 66:0.846154 67:1 68:0.833333 69:1 70:0.833333 71:1 72:1 73:1 74:1 75:1 76:1 77:1 78:1 79:1 80:1 81:1 82:0.818182 83:1 84:1 85:1 86:1 87:1 88:0.8 89:0.8 90:1 91:0.777778 92:0.777778 93:0.777778 94:0.777778 95:0.777778 96:0.994975 97:0.995012 98:1 99:1 100:0.995012 101:1 102:1 103:1 104:1 105:1 106:1 107:1 108:1 109:1 110:1 111:1 112:1 113:1 114:1 115:0.995025 116:1 117:1 118:0.995025 119:0.995025 120:0.995025 121:0.995025 122:0.995025 123:1 124:0.995025 125:0.995025 126:0.995025 127:1 128:1 
0.2451363748057625 0 1:1 2:1 3:1 4:1 5:0.8 6:1 7:0.894737 8:1 9:0.916667 10:1 11:0.931034 12:0.870968 13:0.935484 14:0.935484 15:0.935484 16:0.933333 17:0.933333 18:1 19:0.933333 20:0.931034 21:0.928571 22:1 23:1 24:1 25:0.92 26:0.92 27:0.92 28:1 29:0.916667 30:1 31:0.913043 32:1 33:1 34:1 35:0.909091 36:0.904762 37:0.909091 38:0.904762 39:0.904762 40:1 41:1 42:1 43:0.894737 44:0.894737 45:1 46:1 47:0.888889 48:0.882353 49:1 50:1 51:1 52:1 53:1 54:1 55:1 56:1 57:0.866667 58:0.857143 59:0.857143 60:0.846154 61:1 62:1 63:0.846154 64:0.846154 65:0.846154 66:0.846154 67:1 68:0.833333 69:0.833333 70:0.833333 71:1 72:1 73:1 74:1 75:1 76:1 77:1 78:1 79:1 80:1 81:1 82:0.818182 83:1 84:1 85:1 86:1 87:1 88:0.8 89:0.8 90:1 91:0.777778 92:0.777778 93:0.777778 94:0.777778 95:0.777778 96:0.994975 97:0.995012 98:1 99:1 100:1 101:1 102:1 103:1 104:1 105:1 106:1 107:1 108:1 109:1 110:1 111:1 112:1 113:1 114:1 115:0.995025 116:1 117:1 118:0.995025 119:0.995025 120:0.995025 121:0.995025 122:0.995025 123:1 124:0.995025 125:0.995025 126:0.995025 127:1 128:1 
0.6380017887940119 0 1:1 2:0.666667 3:1 4:1 5:1 6:1 7:1 8:1 9:1 10:1 11:1 12:0.935484 13:0.935484 14:1 15:1 16:1 17:0.933333 18:1 19:1 20:0.931034 21:0.928571 22:1 23:1 24:0.92 25:0.92 26:1 27:1 28:1 29:0.916667 30:0.916667 31:1 32:1 33:1 34:1 35:1 36:1 37:0.909091 38:1 39:1 40:1 41:1 42:1 43:0.894737 44:1 45:0.888889 46:1 47:0.888889 48:0.882353 49:0.882353 50:1 51:1 52:1 53:1 54:1 55:1 56:1 57:0.866667 58:0.857143 59:0.857143 60:1 61:1 62:1 63:1 64:0.846154 65:0.846154 66:0.846154 67:0.833333 68:1 69:0.833333 70:1 71:0.833333 72:1 73:1 74:0.818182 75:1 76:1 77:1 78:1 79:1 80:1 81:1 82:0.818182 83:1 84:1 85:1 86:1 87:1 88:0.8 89:0.8 90:1 91:0.777778 92:0.777778 93:0.777778 94:0.777778 95:0.777778 96:1 97:1 98:1 99:0.995012 100:1 101:1 102:0.995012 103:1 104:1 105:1 106:0.995012 107:1 108:0.995012 109:1 110:1 111:1 112:0.995025 113:1 114:1 115:0.995025 116:1 117:1 118:0.995025 119:0.995025 120:0.995025 121:0.995025 122:1 123:0.995025 124:1 125:1 126:0.995025 127:1 128:0.995025 
0 0.4577393954624099 1:1 2:1 3:1 4:1 5:1 6:0.857143 7:0.894737 8:1 9:0.916667 10:1 11:0.931034 12:0.870968 13:0.935484 14:0.935484 15:0.935484 16:0.933333 17:0.933333 18:1 19:0.933333 20:0.931034 21:0.928571 22:1 23:1 24:1 25:0.92 26:1 27:0.92 28:1 29:0.916667 30:1 31:0.913043 32:1 33:1 34:1 35:0.909091 36:0.904762 37:0.909091 38:0.904762 39:0.904762 40:1 41:1 42:1 43:1 44:0.894737 45:1 46:1 47:0.888889 48:0.882353 49:1 50:1 51:1 52:1 53:1 54:1 55:1 56:1 57:0.866667 58:0.857143 59:1 60:0.846154 61:1 62:1 63:1 64:0.846154 65:0.846154 66:0.846154 67:0.833333 68:0.833333 69:0.833333 70:0.833333 71:1 72:1 73:1 74:1 75:1 76:1 77:1 78:1 79:1 80:1 81:1 82:0.818182 83:1 84:1 85:1 86:1 87:1 88:0.8 89:0.8 90:1 91:0.777778 92:0.777778 93:1 94:0.777778 95:0.777778 96:0.994975 97:0.995012 98:1 99:1 100:1 101:0.995012 102:1 103:1 104:0.995012 105:1 106:1 107:1 108:1 109:1 110:1 111:1 112:0.995025 113:1 114:1 115:0.995025 116:1 117:1 118:0.995025 119:0.995025 120:0.995025 121:0.995025 122:0.995025 123:0.995025 124:0.995025 125:0.995025 126:0.995025 127:1 128:1 
2 0 1:1 2:1 3:1 4:1 5:0.8 6:0.857143 7:0.894737 8:1 9:0.916667 10:1 11:0.931034 12:0.870968 13:0.935484 14:0.935484 15:1 16:0.933333 17:0.933333 18:1 19:0.933333 20:0.931034 21:0.928571 22:1 23:1 24:1 25:0.92 26:1 27:0.92 28:1 29:0.916667 30:1 31:0.913043 32:1 33:1 34:1 35:0.909091 36:0.904762 37:0.909091 38:0.904762 39:1 40:1 41:1 42:1 43:0.894737 44:0.894737 45:1 46:1 47:0.888889 48:0.882353 49:1 50:0.875 51:1 52:1 53:1 54:1 55:1 56:1 57:0.866667 58:0.857143 59:1 60:0.846154 61:1 62:1 63:1 64:0.846154 65:0.846154 66:0.846154 67:0.833333 68:0.833333 69:0.833333 70:0.833333 71:1 72:1 73:1 74:1 75:1 76:1 77:1 78:1 79:1 80:1 81:1 82:0.818182 83:1 84:1 85:1 86:1 87:1 88:0.8 89:0.8 90:1 91:0.777778 92:0.777778 93:0.777778 94:0.777778 95:0.777778 96:0.994975 97:0.995012 98:1 99:1 100:0.995012 101:0.995012 102:1 103:1 104:1 105:1 106:1 107:1 108:1 109:0.995025 110:1 111:1 112:0.995025 113:1 114:1 115:0.995025 116:1 117:1 118:0.995025 119:0.995025 120:0.995025 121:0.995025 122:1 123:1 124:0.995025 125:0.995025 126:0.995025 127:1 128:1 
0.8621446832492982 0 1:1 2:0.666667 3:1 4:1 5:1 6:1 7:1 8:0.904762 9:1 10:1 11:1 12:0.935484 13:0.935484 14:1 15:1 16:1 17:1 18:1 19:0.933333 20:0.931034 21:0.928571 22:1 23:1 24:0.92 25:0.92 26:1 27:1 28:1 29:0.916667 30:0.916667 31:0.913043 32:1 33:1 34:1 35:1 36:1 37:0.909091 38:1 39:1 40:1 41:1 42:1 43:0.894737 44:1 45:1 46:1 47:0.888889 48:0.882353 49:0.882353 50:1 51:1 52:1 53:1 54:1 55:1 56:1 57:0.866667 58:1 59:0.857143 60:1 61:1 62:1 63:1 64:1 65:0.846154 66:0.846154 67:1 68:1 69:0.833333 70:1 71:0.833333 72:1 73:1 74:0.818182 75:1 76:1 77:1 78:1 79:1 80:1 81:1 82:0.818182 83:1 84:1 85:1 86:1 87:1 88:0.8 89:0.8 90:1 91:1 92:0.777778 93:0.777778 94:0.777778 95:0.777778 96:1 97:1 98:0.995012 99:0.995012 100:1 101:1 102:0.995012 103:1 104:1 105:1 106:1 107:1 108:1 109:1 110:1 111:1 112:0.995025 113:1 114:1 115:0.995025 116:1 117:1 118:1 119:0.995025 120:0.995025 121:0.995025 122:0.995025 123:0.995025 124:1 125:1 126:1 127:0.995025 128:0.995025 
2 0 1:1 2:1 3:1 4:1 5:0.8 6:0.857143 7:0.894737 8:1 9:0.916667 10:1 11:1 12:0.870968 13:0.935484 14:0.935484 15:0.935484 16:0.933333 17:0.933333 18:1 19:0.933333 20:0.931034 21:0.928571 22:1 23:1 24:1 25:0.92 26:0.92 27:0.92 28:1 29:0.916667 30:1 31:0.913043 32:1 33:1 34:1 35:0.909091 36:0.904762 37:0.909091 38:0.904762 39:0.904762 40:1 41:1 42:1 43:1 44:0.894737 45:1 46:1 47:0.888889 48:0.882353 49:1 50:0.875 51:1 52:1 53:1 54:1 55:1 56:1 57:0.866667 58:0.857143 59:0.857143 60:0.846154 61:1 62:1 63:0.846154 64:0.846154 65:0.846154 66:0.846154 67:1 68:0.833333 69:0.833333 70:0.833333 71:1 72:1 73:1 74:1 75:1 76:1 77:1 78:1 79:1 80:1 81:1 82:0.818182 83:1 84:1 85:1 86:1 87:1 88:0.8 89:0.8 90:1 91:0.777778 92:0.777778 93:0.777778 94:0.777778 95:0.777778 96:0.994975 97:0.995012 98:1 99:0.995012 100:1 101:0.995012 102:1 103:1 104:0.995012 105:1 106:1 107:1 108:1 109:1 110:1 111:1 112:1 113:1 114:1 115:0.995025 116:1 117:1 118:0.995025 119:0.995025 120:0.995025 121:0.995025 122:1 123:1 124:0.995025 125:0.995025 126:0.995025 127:1 128:1 
0.4810503826599025 0.2876744208614055 1:1 2:1 3:1 4:1 5:0.8 6:0.857143 7:0.894737 8:1 9:0.916667 10:1 11:0.931034 12:0.935484 13:0.935484 14:0.935484 15:1 16:1 17:0.933333 18:1 19:0.933333 20:0.931034 21:0.928571 22:1 23:1 24:1 25:0.92 26:1 27:0.92 28:1 29:0.916667 30:1 31:0.913043 32:1 33:1 34:1 35:0.909091 36:0.904762 37:0.909091 38:0.904762 39:1 40:1 41:1 42:1 43:1 44:0.894737 45:1 46:1 47:0.888889 48:0.882353 49:1 50:1 51:0.875 52:1 53:1 54:1 55:1 56:1 57:0.866667 58:0.857143 59:0.857143 60:0.846154 61:1 62:1 63:0.846154 64:0.846154 65:0.846154 66:1 67:0.833333 68:0.833333 69:1 70:0.833333 71:1 72:1 73:1 74:1 75:1 76:1 77:1 78:1 79:1 80:1 81:1 82:0.818182 83:1 84:1 85:1 86:1 87:1 88:0.8 89:0.8 90:1 91:0.777778 92:0.777778 93:0.777778 94:1 95:1 96:0.994975 97:0.995012 98:1 99:1 100:1 101:1 102:1 103:1 104:1 105:1 106:1 107:1 108:1 109:0.995025 110:1 111:1 112:0.995025 113:1 114:1 115:0.995025 116:1 117:1 118:0.995025 119:0.995025 120:0.995025 121:0.995025 122:0.995025 123:0.995025 124:0.995025 125:0.995025 126:0.995025 127:0.995025 128:1 
0.8920065501869819 0 1:1 2:0.666667 3:1 4:1 5:1 6:1 7:1 8:0.904762 9:1 10:1 11:1 12:0.935484 13:1 14:1 15:1 16:1 17:0.933333 18:1 19:0.933333 20:0.931034 21:0.928571 22:1 23:0.923077 24:0.92 25:0.92 26:1 27:1 28:1 29:0.916667 30:0.916667 31:0.913043 32:1 33:1 34:1 35:1 36:1 37:0.909091 38:0.904762 39:1 40:1 41:1 42:1 43:0.894737 44:1 45:0.888889 46:1 47:0.888889 48:1 49:1 50:1 51:1 52:1 53:1 54:1 55:1 56:1 57:0.866667 58:0.857143 59:0.857143 60:1 61:1 62:1 63:1 64:0.846154 65:1 66:0.846154 67:0.833333 68:1 69:0.833333 70:1 71:1 72:1 73:1 74:0.818182 75:1 76:1 77:1 78:1 79:1 80:1 81:1 82:0.818182 83:1 84:1 85:1 86:1 87:1 88:0.8 89:0.8 90:1 91:0.777778 92:0.777778 93:0.777778 94:0.777778 95:1 96:1 97:1 98:0.995012 99:1 100:1 101:1 102:0.995012 103:0.995012 104:1 105:1 106:1 107:1 108:1 109:1 110:1 111:1 112:0.995025 113:1 114:1 115:0.995025 116:1 117:1 118:0.995025 119:0.995025 120:0.995025 121:0.995025 122:0.995025 123:0.995025 124:1 125:1 126:0.995025 127:1 128:0.995025 
2 0 1:1 2:1 3:1 4:1 5:0.8 6:0.857143 7:0.894737 8:1 9:0.916667 10:1 11:0.931034 12:0.870968 13:0.935484 14:0.935484 15:0.935484 16:1 17:0.933333 18:1 19:0.933333 20:0.931034 21:0.928571 22:1 23:1 24:1 25:0.92 26:1 27:0.92 28:1 29:1 30:1 31:0.913043 32:1 33:1 34:1 35:0.909091 36:0.904762 37:0.909091 38:0.904762 39:1 40:1 41:1 42:1 43:0.894737 44:0.894737 45:1 46:1 47:0.888889 48:0.882353 49:1 50:0.875 51:1 52:1 53:1 54:1 55:1 56:1 57:0.866667 58:0.857143 59:0.857143 60:0.846154 61:1 62:0.846154 63:0.846154 64:0.846154 65:0.846154 66:0.846154 67:0.833333 68:0.833333 69:0.833333 70:1 71:1 72:1 73:1 74:1 75:1 76:1 77:1 78:1 79:1 80:1 81:1 82:0.818182 83:1 84:1 85:1 86:1 87:1 88:0.8 89:0.8 90:1 91:0.777778 92:0.777778 93:0.777778 94:0.777778 95:0.777778 96:0.994975 97:1 98:1 99:0.995012 100:0.995012 101:1 102:1 103:1 104:1 105:1 106:1 107:1 108:1 109:1 110:1 111:1 112:0.995025 113:1 114:1 115:0.995025 116:1 117:1 118:0.995025 119:0.995025 120:0.995025 121:0.995025 122:0.995025 123:0.995025 124:0.995025 125:0.995025 126:0.995025 127:1 128:1 
0.0805629154044686 0 1:1 2:0.333333 3:1 4:1 5:1 6:1 7:1 8:1 9:1 10:1 11:1 12:0.935484 13:0.935484 14:1 15:1 16:1 17:0.933333 18:1 19:0.933333 20:0.931034 21:0.928571 22:1 23:1 24:0.92 25:0.92 26:1 27:1 28:1 29:0.916667 30:0.916667 31:1 32:1 33:1 34:1 35:1 36:1 37:0.909091 38:1 39:1 40:1 41:1 42:1 43:0.894737 44:1 45:0.888889 46:1 47:1 48:0.882353 49:0.882353 50:1 51:1 52:1 53:1 54:1 55:1 56:1 57:0.866667 58:1 59:0.857143 60:1 61:1 62:1 63:1 64:0.846154 65:0.846154 66:0.846154 67:0.833333 68:0.833333 69:0.833333 70:1 71:0.833333 72:1 73:1 74:1 75:1 76:1 77:1 78:1 79:1 80:1 81:1 82:0.818182 83:1 84:1 85:1 86:1 87:1 88:0.8 89:1 90:1 91:1 92:0.777778 93:0.777778 94:0.777778 95:0.777778 96:1 97:1 98:1 99:0.995012 100:1 101:1 102:0.995012 103:1 104:1 105:1 106:0.995012 107:1 108:1 109:1 110:1 111:1 112:0.995025 113:1 114:1 115:0.995025 116:1 117:1 118:0.995025 119:0.995025 120:0.995025 121:1 122:0.995025 123:0.995025 124:1 125:1 126:0.995025 127:0.995025 128:0.995025 
2 1.32375942394734 1:1 2:0.333333 3:1 4:1 5:1 6:1 7:1 8:0.904762 9:1 10:1 11:1 12:0.935484 13:0.935484 14:1 15:1 16:1 17:0.933333 18:1 19:1 20:0.931034 21:0.928571 22:1 23:1 24:1 25:0.92 26:1 27:1 28:1 29:0.916667 30:0.916667 31:0.913043 32:1 33:1 34:1 35:1 36:1 37:1 38:1 39:1 40:1 41:1 42:1 43:0.894737 44:1 45:0.888889 46:1 47:1 48:0.882353 49:0.882353 50:1 51:1 52:1 53:1 54:1 55:1 56:1 57:0.866667 58:1 59:0.857143 60:1 61:1 62:1 63:1 64:0.846154 65:0.846154 66:0.846154 67:0.833333 68:0.833333 69:0.833333 70:1 71:0.833333 72:0.833333 73:1 74:0.818182 75:1 76:1 77:1 78:1 79:1 80:1 81:1 82:0.818182 83:1 84:1 85:1 86:1 87:1 88:0.8 89:0.8 90:1 91:0.777778 92:0.777778 93:0.777778 94:0.777778 95:0.777778 96:1 97:1 98:1 99:0.995012 100:1 101:1 102:0.995012 103:1 104:1 105:1 106:1 107:1 108:1 109:1 110:1 111:1 112:0.995025 113:1 114:1 115:0.995025 116:1 117:1 118:0.995025 119:0.995025 120:0.995025 121:0.995025 122:0.995025 123:0.995025 124:1 125:1 126:0.995025 127:1 128:0.995025 
1.575480506839649 0 1:1 2:0.666667 3:1 4:1 5:1 6:1 7:1 8:1 9:1 10:1 11:1 12:1 13:0.935484 14:1 15:1 16:1 17:0.933333 18:1 19:0.933333 20:0.931034 21:0.928571 22:1 23:1 24:0.92 25:0.92 26:1 27:1 28:1 29:0.916667 30:0.916667 31:0.913043 32:1 33:1 34:1 35:1 36:1 37:0.909091 38:1 39:1 40:1 41:1 42:1 43:0.894737 44:1 45:0.888889 46:1 47:0.888889 48:0.882353 49:0.882353 50:1 51:1 52:1 53:1 54:1 55:1 56:1 57:0.866667 58:1 59:0.857143 60:1 61:1 62:1 63:1 64:0.846154 65:0.846154 66:0.846154 67:0.833333 68:0.833333 69:0.833333 70:1 71:0.833333 72:0.833333 73:1 74:0.818182 75:1 76:1 77:1 78:1 79:1 80:1 81:1 82:0.818182 83:1 84:1 85:1 86:1 87:1 88:0.8 89:0.8 90:1 91:0.777778 92:0.777778 93:0.777778 94:1 95:0.777778 96:1 97:1 98:1 99:0.995012 100:1 101:1 102:0.995012 103:1 104:1 105:1 106:0.995012 107:0.995012 108:1 109:1 110:1 111:1 112:0.995025 113:1 114:1 115:0.995025 116:1 117:1 118:0.995025 119:0.995025 120:0.995025 121:0.995025 122:0.995025 123:0.995025 124:1 125:1 126:0.995025 127:1 128:0.995025 
1.382609897166601 0.3932799515709828 1:1 2:1 3:1 4:1 5:0.8 6:0.857143 7:0.894737 8:1 9:0.916667 10:1 11:1 12:0.870968 13:0.935484 14:0.935484 15:1 16:1 17:0.933333 18:1 19:0.933333 20:0.931034 21:0.928571 22:1 23:1 24:1 25:0.92 26:0.92 27:0.92 28:1 29:1 30:1 31:0.913043 32:1 33:1 34:1 35:0.909091 36:0.904762 37:0.909091 38:0.904762 39:0.904762 40:1 41:1 42:1 43:0.894737 44:0.894737 45:1 46:1 47:0.888889 48:0.882353 49:1 50:0.875 51:0.875 52:1 53:1 54:1 55:1 56:1 57:1 58:0.857143 59:0.857143 60:0.846154 61:1 62:0.846154 63:1 64:0.846154 65:0.846154 66:0.846154 67:0.833333 68:0.833333 69:0.833333 70:1 71:1 72:1 73:1 74:1 75:1 76:1 77:1 78:1 79:1 80:1 81:1 82:1 83:1 84:1 85:1 86:1 87:1 88:0.8 89:0.8 90:1 91:0.777778 92:0.777778 93:0.777778 94:0.777778 95:0.777778 96:0.994975 97:0.995012 98:1 99:0.995012 100:1 101:1 102:1 103:1 104:0.995012 105:1 106:1 107:1 108:1 109:1 110:1 111:1 112:0.995025 113:1 114:1 115:0.995025 116:1 117:1 118:0.995025 119:0.995025 120:0.995025 121:0.995025 122:0.995025 123:0.995025 124:0.995025 125:0.995025 126:0.995025 127:1 128:1 
0.2875068618003153 0 1:1 2:0.666667 3:1 4:1 5:1 6:1 7:1 8:0.904762 9:1 10:1 11:1 12:0.935484 13:1 14:1 15:1 16:1 17:1 18:1 19:1 20:0.931034 21:0.928571 22:1 23:0.923077 24:0.92 25:0.92 26:1 27:1 28:1 29:0.916667 30:0.916667 31:0.913043 32:1 33:1 34:1 35:0.909091 36:1 37:0.909091 38:1 39:1 40:1 41:1 42:1 43:1 44:1 45:0.888889 46:1 47:1 48:0.882353 49:1 50:1 51:1 52:1 53:1 54:1 55:1 56:1 57:0.866667 58:1 59:0.857143 60:1 61:1 62:1 63:1 64:0.846154 65:0.846154 66:0.846154 67:0.833333 68:0.833333 69:0.833333 70:1 71:0.833333 72:0.833333 73:1 74:1 75:1 76:1 77:1 78:1 79:1 80:1 81:1 82:0.818182 83:1 84:1 85:1 86:1 87:1 88:0.8 89:0.8 90:1 91:0.777778 92:0.777778 93:0.777778 94:0.777778 95:1 96:1 97:1 98:0.995012 99:1 100:1 101:1 102:1 103:1 104:1 105:0.995012 106:0.995012 107:0.995012 108:1 109:1 110:1 111:1 112:0.995025 113:1 114:1 115:0.995025 116:1 117:1 118:0.995025 119:0.995025 120:0.995025 121:0.995025 122:1 123:0.995025 124:0.995025 125:1 126:0.995025 127:0.995025 128:0.995025 
1.431226836450728 0.4554682892573967 1:1 2:0.666667 3:1 4:1 5:1 6:1 7:1 8:0.904762 9:1 10:1 11:1 12:0.935484 13:1 14:1 15:1 16:1 17:0.933333 18:1 19:1 20:0.931034 21:0.928571 22:1 23:1 24:1 25:0.92 26:1 27:1 28:1 29:0.916667 30:0.916667 31:1 32:1 33:1 34:1 35:1 36:1 37:0.909091 38:0.904762 39:1 40:1 41:1 42:1 43:0.894737 44:1 45:0.888889 46:1 47:0.888889 48:0.882353 49:0.882353 50:1 51:1 52:1 53:1 54:1 55:1 56:1 57:0.866667 58:1 59:0.857143 60:1 61:1 62:1 63:1 64:1 65:0.846154 66:0.846154 67:0.833333 68:0.833333 69:0.833333 70:1 71:0.833333 72:0.833333 73:1 74:1 75:1 76:1 77:1 78:1 79:1 80:1 81:1 82:0.818182 83:1 84:1 85:1 86:1 87:1 88:0.8 89:1 90:1 91:0.777778 92:0.777778 93:0.777778 94:0.777778 95:0.777778 96:1 97:1 98:1 99:0.995012 100:1 101:1 102:0.995012 103:0.995012 104:1 105:1 106:1 107:1 108:0.995012 109:1 110:1 111:1 112:0.995025 113:1 114:1 115:0.995025 116:1 117:1 118:0.995025 119:0.995025 120:0.995025 121:0.995025 122:1 123:0.995025 124:0.995025 125:1 126:0.995025 127:0.995025 128:0.995025 
0 0.1381815726242865 1:1 2:1 3:1 4:1 5:1 6:0.857143 7:0.894737 8:1 9:0.916667 10:1 11:1 12:0.870968 13:0.935484 14:0.935484 15:1 16:1 17:0.933333 18:1 19:0.933333 20:0.931034 21:0.928571 22:1 23:1 24:1 25:0.92 26:1 27:0.92 28:1 29:0.916667 30:1 31:0.913043 32:0.909091 33:1 34:1 35:0.909091 36:0.904762 37:0.909091 38:0.904762 39:0.904762 40:1 41:1 42:1 43:0.894737 44:0.894737 45:1 46:1 47:0.888889 48:0.882353 49:1 50:1 51:1 52:1 53:1 54:1 55:1 56:1 57:0.866667 58:0.857143 59:0.857143 60:0.846154 61:1 62:1 63:1 64:0.846154 65:0.846154 66:0.846154 67:0.833333 68:0.833333 69:1 70:0.833333 71:1 72:1 73:1 74:1 75:1 76:1 77:1 78:1 79:1 80:1 81:1 82:0.818182 83:1 84:1 85:1 86:1 87:1 88:0.8 89:0.8 90:1 91:0.777778 92:0.777778 93:0.777778 94:0.777778 95:1 96:0.994975 97:0.995012 98:1 99:1 100:1 101:1 102:1 103:1 104:0.995012 105:1 106:1 107:1 108:1 109:1 110:1 111:1 112:1 113:1 114:1 115:0.995025 116:1 117:1 118:0.995025 119:0.995025 120:0.995025 121:0.995025 122:0.995025 123:0.995025 124:0.995025 125:0.995025 126:0.995025 127:1 128:1 
2 0 1:1 2:1 3:1 4:1 5:1 6:0.857143 7:0.894737 8:1 9:0.916667 10:1 11:1 12:0.870968 13:0.935484 14:0.935484 15:1 16:0.933333 17:0.933333 18:1 19:0.933333 20:0.931034 21:0.928571 22:1 23:1 24:1 25:0.92 26:1 27:0.92 28:1 29:0.916667 30:1 31:0.913043 32:1 33:1 34:1 35:0.909091 36:0.904762 37:0.909091 38:0.904762 39:1 40:1 41:1 42:1 43:1 44:0.894737 45:1 46:1 47:0.888889 48:0.882353 49:1 50:0.875 51:1 52:1 53:1 54:1 55:1 56:1 57:0.866667 58:0.857143 59:0.857143 60:0.846154 61:1 62:0.846154 63:0.846154 64:0.846154 65:0.846154 66:0.846154 67:0.833333 68:0.833333 69:0.833333 70:1 71:1 72:1 73:1 74:1 75:1 76:1 77:1 78:1 79:1 80:1 81:1 82:0.818182 83:1 84:1 85:1 86:1 87:1 88:0.8 89:0.8 90:1 91:0.777778 92:0.777778 93:0.777778 94:0.777778 95:0.777778 96:0.994975 97:0.995012 98:1 99:1 100:1 101:1 102:1 103:1 104:0.995012 105:1 106:1 107:1 108:1 109:1 110:1 111:1 112:0.995025 113:1 114:1 115:0.995025 116:1 117:1 118:0.995025 119:0.995025 120:0.995025 121:0.995025 122:0.995025 123:1 124:0.995025 125:0.995025 126:0.995025 127:0.995025 128:1 
2 2 1:1 2:0.333333 3:1 4:1 5:1 6:1 7:1 8:0.904762 9:1 10:1 11:1 12:0.935484 13:0.935484 14:1 15:1 16:1 17:0.933333 18:1 19:0.933333 20:0.931034 21:0.928571 22:1 23:1 24:0.92 25:0.92 26:1 27:1 28:1 29:0.916667 30:0.916667 31:0.913043 32:1 33:1 34:1 35:1 36:1 37:0.909091 38:1 39:1 40:1 41:1 42:1 43:0.894737 44:1 45:0.888889 46:1 47:0.888889 48:0.882353 49:1 50:1 51:1 52:1 53:1 54:1 55:1 56:1 57:0.866667 58:1 59:0.857143 60:1 61:1 62:1 63:1 64:0.846154 65:0.846154 66:0.846154 67:0.833333 68:0.833333 69:0.833333 70:1 71:0.833333 72:1 73:1 74:0.818182 75:1 76:1 77:1 78:1 79:1 80:1 81:1 82:0.818182 83:1 84:1 85:1 86:1 87:1 88:0.8 89:0.8 90:1 91:0.777778 92:0.777778 93:0.777778 94:0.777778 95:0.777778 96:0.994975 97:1 98:0.995012 99:0.995012 100:1 101:1 102:1 103:0.995012 104:1 105:1 106:1 107:1 108:1 109:1 110:1 111:1 112:0.995025 113:1 114:1 115:0.995025 116:1 117:1 118:0.995025 119:0.995025 120:0.995025 121:0.995025 122:0.995025 123:0.995025 124:0.995025 125:1 126:0.995025 127:0.995025 128:0.995025 
0.3574688877397871 0 1:1 2:0.666667 3:1 4:1 5:1 6:1 7:1 8:0.904762 9:1 10:1 11:1 12:0.935484 13:0.935484 14:1 15:1 16:1 17:1 18:1 19:1 20:0.931034 21:0.928571 22:1 23:1 24:0.92 25:0.92 26:1 27:1 28:1 29:0.916667 30:0.916667 31:0.913043 32:1 33:1 34:1 35:1 36:1 37:1 38:1 39:1 40:1 41:1 42:1 43:0.894737 44:1 45:0.888889 46:1 47:1 48:0.882353 49:0.882353 50:1 51:1 52:1 53:1 54:1 55:1 56:1 57:0.866667 58:1 59:0.857143 60:1 61:1 62:1 63:1 64:0.846154 65:0.846154 66:0.846154 67:0.833333 68:0.833333 69:0.833333 70:1 71:1 72:0.833333 73:1 74:0.818182 75:1 76:1 77:1 78:1 79:1 80:1 81:1 82:0.818182 83:1 84:1 85:1 86:1 87:1 88:1 89:0.8 90:1 91:0.777778 92:0.777778 93:0.777778 94:0.777778 95:0.777778 96:1 97:1 98:0.995012 99:1 100:1 101:1 102:0.995012 103:1 104:1 105:1 106:0.995012 107:1 108:1 109:1 110:1 111:1 112:0.995025 113:1 114:1 115:0.995025 116:1 117:1 118:0.995025 119:0.995025 120:0.995025 121:1 122:0.995025 123:0.995025 124:1 125:1 126:0.995025 127:0.995025 128:0.995025 
-2 0.007307850543432353 1:1 2:0.666667 3:1 4:1 5:1 6:1 7:1 8:0.904762 9:1 10:1 11:1 12:0.935484 13:0.935484 14:1 15:1 16:1 17:0.933333 18:1 19:1 20:0.931034 21:1 22:1 23:1 24:0.92 25:0.92 26:1 27:1 28:1 29:0.916667 30:0.916667 31:1 32:1 33:1 34:1 35:0.909091 36:1 37:0.909091 38:1 39:1 40:1 41:1 42:1 43:0.894737 44:1 45:0.888889 46:1 47:0.888889 48:0.882353 49:0.882353 50:1 51:1 52:1 53:1 54:1 55:1 56:1 57:0.866667 58:1 59:0.857143 60:1 61:1 62:1 63:1 64:1 65:0.846154 66:0.846154 67:0.833333 68:0.833333 69:0.833333 70:1 71:0.833333 72:0.833333 73:1 74:0.818182 75:1 76:1 77:1 78:1 79:1 80:1 81:1 82:0.818182 83:1 84:1 85:1 86:1 87:1 88:0.8 89:0.8 90:1 91:1 92:0.777778 93:0.777778 94:0.777778 95:0.777778 96:1 97:1 98:0.995012 99:0.995012 100:1 101:1 102:1 103:1 104:1 105:1 106:0.995012 107:0.995012 108:1 109:1 110:1 111:1 112:0.995025 113:1 114:1 115:0.995025 116:1 117:1 118:0.995025 119:0.995025 120:0.995025 121:1 122:0.995025 123:0.995025 124:1 125:1 126:1 127:1 128:0.995025 
-2 0 1:1 2:1 3:1 4:1 5:0.8 6:0.857143 7:0.894737 8:1 9:0.916667 10:1 11:0.931034 12:0.870968 13:0.935484 14:0.935484 15:1 16:0.933333 17:0.933333 18:1 19:0.933333 20:0.931034 21:0.928571 22:1 23:1 24:1 25:0.92 26:0.92 27:0.92 28:1 29:0.916667 30:1 31:0.913043 32:0.909091 33:1 34:1 35:0.909091 36:0.904762 37:0.909091 38:0.904762 39:0.904762 40:1 41:1 42:1 43:1 44:0.894737 45:1 46:1 47:0.888889 48:0.882353 49:1 50:0.875 51:1 52:1 53:1 54:1 55:1 56:1 57:0.866667 58:0.857143 59:1 60:0.846154 61:1 62:0.846154 63:0.846154 64:0.846154 65:0.846154 66:0.846154 67:1 68:0.833333 69:1 70:1 71:1 72:1 73:1 74:1 75:1 76:1 77:1 78:1 79:1 80:1 81:1 82:0.818182 83:1 84:1 85:1 86:1 87:1 88:0.8 89:0.8 90:1 91:0.777778 92:0.777778 93:0.777778 94:0.777778 95:0.777778 96:0.994975 97:0.995012 98:1 99:1 100:0.995012 101:1 102:1 103:1 104:0.995012 105:1 106:1 107:1 108:1 109:1 110:1 111:1 112:0.995025 113:1 114:1 115:0.995025 116:1 117:1 118:0.995025 119:0.995025 120:0.995025 121:0.995025 122:0.995025 123:0.995025 124:0.995025 125:0.995025 126:0.995025 127:1 128:1 
-2 0 1:1 2:0.666667 3:1 4:1 5:1 6:1 7:1 8:0.904762 9:1 10:1 11:1 12:0.935484 13:0.935484 14:1 15:1 16:1 17:0.933333 18:1 19:0.933333 20:0.931034 21:0.928571 22:1 23:1 24:0.92 25:0.92 26:1 27:1 28:1 29:0.916667 30:0.916667 31:1 32:1 33:1 34:1 35:1 36:1 37:0.909091 38:0.904762 39:1 40:1 41:1 42:1 43:0.894737 44:1 45:1 46:1 47:0.888889 48:0.882353 49:0.882353 50:1 51:1 52:1 53:1 54:1 55:1 56:1 57:0.866667 58:1 59:0.857143 60:1 61:1 62:1 63:1 64:1 65:0.846154 66:0.846154 67:0.833333 68:1 69:0.833333 70:1 71:1 72:1 73:1 74:0.818182 75:1 76:1 77:1 78:1 79:1 80:1 81:1 82:0.818182 83:1 84:1 85:1 86:1 87:1 88:0.8 89:0.8 90:1 91:0.777778 92:0.777778 93:0.777778 94:0.777778 95:0.777778 96:1 97:1 98:0.995012 99:1 100:1 101:1 102:1 103:1 104:1 105:0.995012 106:1 107:1 108:1 109:1 110:1 111:1 112:0.995025 113:1 114:1 115:0.995025 116:1 117:1 118:0.995025 119:0.995025 120:0.995025 121:0.995025 122:0.995025 123:0.995025 124:1 125:1 126:0.995025 127:1 128:0.995025 
-2 0 1:1 2:1 3:1 4:1 5:0.8 6:0.857143 7:0.894737 8:1 9:0.916667 10:1 11:1 12:0.870968 13:0.935484 14:0.935484 15:1 16:1 17:0.933333 18:1 19:0.933333 20:1 21:0.928571 22:1 23:1 24:1 25:0.92 26:1 27:0.92 28:1 29:0.916667 30:1 31:0.913043 32:1 33:1 34:1 35:0.909091 36:0.904762 37:0.909091 38:0.904762 39:0.904762 40:1 41:1 42:1 43:1 44:0.894737 45:1 46:1 47:0.888889 48:0.882353 49:1 50:0.875 51:1 52:1 53:1 54:1 55:1 56:1 57:0.866667 58:0.857143 59:0.857143 60:0.846154 61:0.846154 62:0.846154 63:0.846154 64:0.846154 65:0.846154 66:0.846154 67:1 68:0.833333 69:0.833333 70:0.833333 71:1 72:1 73:1 74:1 75:1 76:1 77:1 78:1 79:1 80:1 81:1 82:0.818182 83:1 84:1 85:1 86:1 87:1 88:0.8 89:0.8 90:1 91:0.777778 92:0.777778 93:0.777778 94:0.777778 95:0.777778 96:0.994975 97:0.995012 98:1 99:1 100:1 101:0.995012 102:1 103:1 104:1 105:1 106:1 107:1 108:1 109:1 110:1 111:1 112:0.995025 113:1 114:1 115:0.995025 116:1 117:1 118:0.995025 119:0.995025 120:1 121:0.995025 122:0.995025 123:0.995025 124:0.995025 125:0.995025 126:0.995025 127:1 128:1 
-2 0 1:1 2:0.666667 3:1 4:1 5:1 6:1 7:1 8:0.904762 9:1 10:1 11:1 12:0.935484 13:0.935484 14:1 15:1 16:1 17:0.933333 18:1 19:0.933333 20:0.931034 21:0.928571 22:1 23:1 24:0.92 25:0.92 26:1 27:1 28:1 29:0.916667 30:0.916667 31:0.913043 32:1 33:1 34:1 35:1 36:1 37:0.909091 38:1 39:1 40:1 41:1 42:1 43:0.894737 44:0.894737 45:1 46:1 47:0.888889 48:1 49:0.882353 50:1 51:1 52:1 53:1 54:1 55:1 56:1 57:0.866667 58:0.857143 59:0.857143 60:1 61:1 62:1 63:1 64:0.846154 65:0.846154 66:0.846154 67:0.833333 68:0.833333 69:0.833333 70:1 71:0.833333 72:0.833333 73:1 74:0.818182 75:1 76:1 77:1 78:1 79:1 80:1 81:1 82:0.818182 83:1 84:1 85:1 86:1 87:1 88:0.8 89:0.8 90:1 91:0.777778 92:0.777778 93:0.777778 94:1 95:0.777778 96:1 97:1 98:1 99:0.995012 100:1 101:1 102:0.995012 103:1 104:1 105:1 106:1 107:1 108:1 109:1 110:1 111:1 112:0.995025 113:1 114:1 115:0.995025 116:1 117:1 118:0.995025 119:0.995025 120:0.995025 121:0.995025 122:1 123:0.995025 124:0.995025 125:1 126:0.995025 127:0.995025 128:0.995025 
-2 1.156839357033118 1:1 2:1 3:1 4:1 5:0.8 6:0.857143 7:0.894737 8:1 9:0.916667 10:1 11:1 12:0.870968 13:0.935484 14:0.935484 15:1 16:1 17:0.933333 18:1 19:0.933333 20:0.931034 21:0.928571 22:1 23:1 24:1 25:0.92 26:1 27:0.92 28:1 29:0.916667 30:1 31:0.913043 32:1 33:1 34:1 35:0.909091 36:0.904762 37:0.909091 38:0.904762 39:1 40:1 41:1 42:1 43:1 44:0.894737 45:1 46:1 47:0.888889 48:0.882353 49:1 50:0.875 51:0.875 52:1 53:1 54:1 55:1 56:1 57:0.866667 58:0.857143 59:0.857143 60:0.846154 61:1 62:1 63:0.846154 64:0.846154 65:0.846154 66:0.846154 67:1 68:0.833333 69:1 70:1 71:1 72:1 73:1 74:1 75:1 76:1 77:1 78:1 79:1 80:1 81:1 82:0.818182 83:1 84:1 85:1 86:1 87:1 88:0.8 89:0.8 90:1 91:0.777778 92:1 93:0.777778 94:0.777778 95:0.777778 96:0.994975 97:0.995012 98:1 99:1 100:1 101:1 102:1 103:1 104:1 105:1 106:1 107:1 108:1 109:1 110:1 111:1 112:0.995025 113:1 114:1 115:0.995025 116:1 117:1 118:0.995025 119:0.995025 120:0.995025 121:0.995025 122:0.995025 123:0.995025 124:1 125:0.995025 126:0.995025 127:0.995025 128:1 
-2 0.4683398947612854 1:1 2:0.333333 3:1 4:1 5:1 6:1 7:1 8:0.904762 9:1 10:1 11:1 12:0.935484 13:0.935484 14:1 15:1 16:1 17:0.933333 18:1 19:0.933333 20:0.931034 21:0.928571 22:1 23:1 24:0.92 25:0.92 26:1 27:1 28:1 29:0.916667 30:0.916667 31:0.913043 32:1 33:1 34:1 35:0.909091 36:1 37:0.909091 38:1 39:1 40:1 41:1 42:1 43:1 44:1 45:0.888889 46:1 47:1 48:0.882353 49:1 50:1 51:1 52:1 53:1 54:1 55:1 56:1 57:0.866667 58:1 59:0.857143 60:0.846154 61:1 62:1 63:1 64:0.846154 65:0.846154 66:0.846154 67:0.833333 68:0.833333 69:0.833333 70:1 71:0.833333 72:1 73:1 74:0.818182 75:1 76:1 77:1 78:1 79:1 80:1 81:1 82:0.818182 83:1 84:1 85:1 86:1 87:1 88:0.8 89:0.8 90:1 91:0.777778 92:0.777778 93:0.777778 94:0.777778 95:0.777778 96:1 97:1 98:0.995012 99:0.995012 100:1 101:1 102:0.995012 103:1 104:1 105:0.995012 106:1 107:0.995012 108:0.995012 109:1 110:1 111:1 112:0.995025 113:1 114:1 115:0.995025 116:1 117:1 118:0.995025 119:0.995025 120:0.995025 121:0.995025 122:0.995025 123:0.995025 124:0.995025 125:1 126:0.995025 127:0.995025 128:0.995025 
-2 0.9640427089597147 1:1 2:1 3:1 4:1 5:0.8 6:0.857143 7:0.894737 8:1 9:0.916667 10:1 11:1 12:0.935484 13:0.935484 14:0.935484 15:0.935484 16:1 17:0.933333 18:1 19:0.933333 20:0.931034 21:0.928571 22:1 23:1 24:1 25:0.92 26:1 27:0.92 28:1 29:1 30:1 31:0.913043 32:1 33:1 34:1 35:0.909091 36:0.904762 37:0.909091 38:0.904762 39:0.904762 40:1 41:1 42:1 43:0.894737 44:1 45:1 46:1 47:0.888889 48:0.882353 49:1 50:1 51:1 52:1 53:1 54:1 55:1 56:1 57:0.866667 58:0.857143 59:1 60:0.846154 61:1 62:1 63:0.846154 64:0.846154 65:0.846154 66:0.846154 67:1 68:0.833333 69:1 70:0.833333 71:1 72:1 73:1 74:1 75:1 76:1 77:1 78:1 79:1 80:1 81:1 82:0.818182 83:1 84:1 85:1 86:1 87:1 88:0.8 89:0.8 90:1 91:0.777778 92:0.777778 93:0.777778 94:0.777778 95:0.777778 96:0.994975 97:0.995012 98:1 99:1 100:1 101:1 102:1 103:1 104:0.995012 105:1 106:1 107:1 108:1 109:1 110:1 111:1 112:1 113:1 114:1 115:0.995025 116:1 117:1 118:0.995025 119:0.995025 120:0.995025 121:0.995025 122:0.995025 123:1 124:0.995025 125:0.995025 126:0.995025 127:1 128:1 
-2 0.387965446278874 1:1 2:0.666667 3:1 4:1 5:1 6:1 7:1 8:1 9:1 10:1 11:1 12:0.935484 13:0.935484 14:1 15:1 16:1 17:0.933333 18:1 19:0.933333 20:0.931034 21:0.928571 22:1 23:1 24:0.92 25:0.92 26:1 27:1 28:1 29:0.916667 30:0.916667 31:0.913043 32:1 33:1 34:1 35:0.909091 36:1 37:0.909091 38:1 39:1 40:1 41:1 42:1 43:0.894737 44:1 45:0.888889 46:1 47:0.888889 48:0.882353 49:1 50:1 51:1 52:1 53:1 54:1 55:1 56:1 57:0.866667 58:1 59:0.857143 60:1 61:1 62:1 63:1 64:0.846154 65:0.846154 66:0.846154 67:0.833333 68:0.833333 69:0.833333 70:1 71:0.833333 72:0.833333 73:1 74:0.818182 75:1 76:1 77:1 78:1 79:1 80:1 81:1 82:0.818182 83:1 84:1 85:1 86:1 87:1 88:0.8 89:0.8 90:1 91:0.777778 92:0.777778 93:0.777778 94:1 95:0.777778 96:1 97:1 98:0.995012 99:0.995012 100:1 101:1 102:1 103:1 104:1 105:1 106:0.995012 107:1 108:1 109:1 110:1 111:1 112:0.995025 113:1 114:1 115:0.995025 116:1 117:1 118:0.995025 119:0.995025 120:0.995025 121:0.995025 122:0.995025 123:0.995025 124:0.995025 125:1 126:0.995025 127:0.995025 128:0.995025 
-2 0 1:1 2:1 3:1 4:1 5:0.8 6:0.857143 7:0.894737 8:1 9:0.916667 10:1 11:1 12:0.870968 13:0.935484 14:0.935484 15:1 16:1 17:0.933333 18:1 19:0.933333 20:0.931034 21:0.928571 22:1 23:1 24:1 25:0.92 26:1 27:0.92 28:1 29:0.916667 30:1 31:0.913043 32:0.909091 33:1 34:1 35:0.909091 36:0.904762 37:0.909091 38:0.904762 39:0.904762 40:1 41:1 42:1 43:1 44:0.894737 45:1 46:1 47:0.888889 48:0.882353 49:1 50:1 51:1 52:1 53:1 54:1 55:1 56:1 57:0.866667 58:0.857143 59:0.857143 60:0.846154 61:1 62:1 63:1 64:0.846154 65:0.846154 66:0.846154 67:0.833333 68:0.833333 69:0.833333 70:1 71:1 72:1 73:1 74:1 75:1 76:1 77:1 78:1 79:1 80:1 81:1 82:0.818182 83:1 84:1 85:1 86:1 87:1 88:0.8 89:0.8 90:1 91:0.777778 92:0.777778 93:0.777778 94:1 95:0.777778 96:0.994975 97:1 98:1 99:1 100:1 101:1 102:1 103:1 104:1 105:1 106:1 107:1 108:1 109:1 110:1 111:1 112:0.995025 113:1 114:1 115:0.995025 116:1 117:1 118:0.995025 119:0.995025 120:0.995025 121:0.995025 122:0.995025 123:1 124:0.995025 125:0.995025 126:0.995025 127:0.995025 128:1 
-2 0 1:1 2:0.666667 3:1 4:1 5:1 6:1 7:1 8:0.904762 9:1 10:1 11:1 12:0.935484 13:1 14:1 15:1 16:1 17:0.933333 18:1 19:1 20:0.931034 21:0.928571 22:1 23:1 24:1 25:0.92 26:1 27:1 28:1 29:0.916667 30:0.916667 31:1 32:1 33:1 34:1 35:1 36:1 37:0.909091 38:1 39:1 40:1 41:1 42:1 43:0.894737 44:1 45:0.888889 46:1 47:0.888889 48:0.882353 49:0.882353 50:1 51:1 52:1 53:1 54:1 55:1 56:1 57:0.866667 58:0.857143 59:0.857143 60:1 61:1 62:1 63:1 64:0.846154 65:0.846154 66:0.846154 67:0.833333 68:0.833333 69:0.833333 70:1 71:1 72:1 73:1 74:0.818182 75:1 76:1 77:1 78:1 79:1 80:1 81:1 82:0.818182 83:1 84:1 85:1 86:1 87:1 88:0.8 89:0.8 90:1 91:0.777778 92:0.777778 93:0.777778 94:0.777778 95:0.777778 96:1 97:1 98:0.995012 99:0.995012 100:1 101:1 102:1 103:1 104:1 105:1 106:1 107:1 108:1 109:0.995025 110:1 111:1 112:0.995025 113:1 114:1 115:0.995025 116:1 117:1 118:0.995025 119:0.995025 120:0.995025 121:0.995025 122:0.995025 123:0.995025 124:1 125:1 126:0.995025 127:0.995025 128:0.995025 
-2 0 1:1 2:1 3:1 4:1 5:1 6:0.857143 7:0.894737 8:1 9:0.916667 10:1 11:1 12:0.870968 13:0.935484 14:0.935484 15:1 16:0.933333 17:0.933333 18:1 19:0.933333 20:0.931034 21:0.928571 22:1 23:1 24:1 25:0.92 26:1 27:0.92 28:1 29:0.916667 30:1 31:0.913043 32:1 33:1 34:1 35:0.909091 36:0.904762 37:0.909091 38:0.904762 39:0.904762 40:1 41:1 42:1 43:1 44:0.894737 45:1 46:1 47:0.888889 48:0.882353 49:1 50:0.875 51:1 52:1 53:1 54:1 55:1 56:1 57:0.866667 58:0.857143 59:0.857143 60:0.846154 61:1 62:0.846154 63:0.846154 64:0.846154 65:0.846154 66:0.846154 67:1 68:0.833333 69:0.833333 70:1 71:1 72:1 73:1 74:1 75:1 76:1 77:1 78:1 79:1 80:1 81:1 82:0.818182 83:1 84:1 85:1 86:1 87:1 88:0.8 89:0.8 90:1 91:0.777778 92:0.777778 93:0.777778 94:0.777778 95:0.777778 96:0.994975 97:0.995012 98:1 99:1 100:0.995012 101:1 102:1 103:1 104:1 105:1 106:1 107:1 108:1 109:0.995025 110:1 111:1 112:1 113:1 114:1 115:0.995025 116:1 117:1 118:0.995025 119:0.995025 120:0.995025 121:0.995025 122:0.995025 123:0.995025 124:0.995025 125:0.995025 126:0.995025 127:1 128:1 
-2 0 1:1 2:0.666667 3:1 4:1 5:1 6:1 7:1 8:0.904762 9:1 10:1 11:1 12:0.935484 13:0.935484 14:1 15:1 16:1 17:0.933333 18:1 19:0.933333 20:0.931034 21:0.928571 22:1 23:1 24:0.92 25:0.92 26:1 27:1 28:1 29:0.916667 30:0.916667 31:0.913043 32:1 33:1 34:1 35:1 36:1 37:0.909091 38:0.904762 39:1 40:1 41:1 42:1 43:0.894737 44:1 45:1 46:1 47:0.888889 48:1 49:0.882353 50:1 51:1 52:1 53:1 54:1 55:1 56:1 57:0.866667 58:1 59:0.857143 60:1 61:1 62:1 63:1 64:0.846154 65:0.846154 66:0.846154 67:0.833333 68:0.833333 69:0.833333 70:1 71:0.833333 72:0.833333 73:1 74:1 75:1 76:1 77:1 78:1 79:1 80:1 81:1 82:0.818182 83:1 84:1 85:1 86:1 87:1 88:0.8 89:0.8 90:1 91:0.777778 92:0.777778 93:0.777778 94:0.777778 95:0.777778 96:1 97:1 98:0.995012 99:0.995012 100:1 101:1 102:0.995012 103:1 104:1 105:0.995012 106:0.995012 107:1 108:0.995012 109:1 110:1 111:1 112:0.995025 113:1 114:1 115:0.995025 116:1 117:1 118:0.995025 119:0.995025 120:0.995025 121:0.995025 122:0.995025 123:0.995025 124:1 125:1 126:0.995025 127:1 128:0.995025 
-2 0 1:1 2:1 3:1 4:1 5:1 6:1 7:0.894737 8:1 9:0.916667 10:1 11:1 12:0.870968 13:0.935484 14:0.935484 15:1 16:1 17:0.933333 18:1 19:0.933333 20:0.931034 21:0.928571 22:1 23:1 24:1 25:0.92 26:1 27:0.92 28:1 29:1 30:1 31:0.913043 32:1 33:1 34:1 35:0.909091 36:0.904762 37:0.909091 38:0.904762 39:1 40:1 41:1 42:1 43:1 44:1 45:1 46:1 47:0.888889 48:0.882353 49:1 50:0.875 51:1 52:1 53:1 54:1 55:1 56:1 57:0.866667 58:0.857143 59:1 60:0.846154 61:1 62:1 63:0.846154 64:0.846154 65:0.846154 66:0.846154 67:1 68:0.833333 69:0.833333 70:0.833333 71:1 72:1 73:1 74:1 75:1 76:1 77:1 78:1 79:1 80:1 81:1 82:0.818182 83:1 84:1 85:1 86:1 87:1 88:0.8 89:0.8 90:1 91:0.777778 92:0.777778 93:0.777778 94:1 95:0.777778 96:0.994975 97:0.995012 98:1 99:1 100:1 101:1 102:1 103:1 104:0.995012 105:1 106:1 107:1 108:1 109:1 110:1 111:1 112:1 113:1 114:1 115:0.995025 116:1 117:1 118:0.995025 119:0.995025 120:0.995025 121:0.995025 122:0.995025 123:0.995025 124:0.995025 125:0.995025 126:0.995025 127:1 128:1 
-2 0 1:1 2:0.666667 3:1 4:1 5:1 6:1 7:1 8:0.904762 9:1 10:1 11:1 12:0.935484 13:0.935484 14:1 15:1 16:1 17:0.933333 18:1 19:0.933333 20:0.931034 21:0.928571 22:1 23:1 24:0.92 25:1 26:1 27:1 28:1 29:0.916667 30:0.916667 31:0.913043 32:1 33:1 34:1 35:1 36:1 37:0.909091 38:0.904762 39:1 40:1 41:1 42:1 43:0.894737 44:1 45:0.888889 46:1 47:0.888889 48:0.882353 49:0.882353 50:1 51:1 52:1 53:1 54:1 55:1 56:1 57:0.866667 58:1 59:0.857143 60:1 61:1 62:1 63:1 64:0.846154 65:0.846154 66:0.846154 67:0.833333 68:0.833333 69:0.833333 70:1 71:1 72:0.833333 73:1 74:1 75:1 76:1 77:1 78:1 79:1 80:1 81:1 82:0.818182 83:1 84:1 85:1 86:1 87:1 88:0.8 89:0.8 90:1 91:0.777778 92:0.777778 93:0.777778 94:0.777778 95:0.777778 96:1 97:1 98:1 99:1 100:1 101:1 102:0.995012 103:1 104:1 105:0.995012 106:1 107:1 108:1 109:1 110:1 111:1 112:0.995025 113:1 114:1 115:0.995025 116:1 117:1 118:0.995025 119:0.995025 120:0.995025 121:0.995025 122:0.995025 123:0.995025 124:1 125:1 126:1 127:0.995025 128:0.995025 
-2 0.4491439716343132 1:1 2:0.666667 3:1 4:1 5:1 6:0.857143 7:1 8:0.904762 9:0.916667 10:1 11:1 12:0.935484 13:0.935484 14:1 15:1 16:1 17:0.933333 18:0.931034 19:0.933333 20:0.931034 21:0.928571 22:1 23:1 24:0.92 25:0.92 26:1 27:1 28:1 29:0.916667 30:0.916667 31:0.913043 32:1 33:1 34:1 35:1 36:1 37:0.909091 38:0.904762 39:1 40:1 41:1 42:1 43:0.894737 44:1 45:0.888889 46:0.882353 47:0.888889 48:0.882353 49:1 50:1 51:1 52:1 53:1 54:1 55:1 56:1 57:0.866667 58:1 59:0.857143 60:1 61:1 62:1 63:1 64:0.846154 65:0.846154 66:0.846154 67:0.833333 68:0.833333 69:0.833333 70:1 71:0.833333 72:1 73:1 74:0.818182 75:1 76:1 77:1 78:1 79:1 80:1 81:1 82:0.818182 83:1 84:1 85:1 86:1 87:1 88:0.8 89:0.8 90:1 91:0.777778 92:0.777778 93:0.777778 94:1 95:0.777778 96:1 97:1 98:0.995012 99:0.995012 100:1 101:1 102:0.995012 103:1 104:1 105:0.995012 106:0.995012 107:1 108:1 109:1 110:1 111:1 112:0.995025 113:1 114:1 115:0.995025 116:1 117:1 118:0.995025 119:0.995025 120:0.995025 121:0.995025 122:0.995025 123:0.995025 124:1 125:1 126:0.995025 127:0.995025 128:0.995025 
-0 0.1788740899185732 1:1 2:1 3:1 4:0.714286 5:0.8 6:0.857143 7:0.894737 8:0.904762 9:0.916667 10:1 11:0.931034 12:0.870968 13:0.935484 14:0.935484 15:0.935484 16:0.933333 17:0.933333 18:1 19:0.933333 20:0.931034 21:0.928571 22:1 23:1 24:0.92 25:0.92 26:0.92 27:0.92 28:1 29:0.916667 30:1 31:0.913043 32:1 33:1 34:1 35:0.909091 36:0.904762 37:0.909091 38:0.904762 39:0.904762 40:1 41:1 42:1 43:0.894737 44:0.894737 45:0.888889 46:1 47:0.888889 48:0.882353 49:1 50:1 51:1 52:1 53:1 54:1 55:1 56:1 57:0.866667 58:0.857143 59:0.857143 60:0.846154 61:0.846154 62:1 63:1 64:0.846154 65:0.846154 66:0.846154 67:1 68:0.833333 69:0.833333 70:1 71:1 72:1 73:1 74:1 75:1 76:1 77:1 78:1 79:1 80:1 81:1 82:0.818182 83:1 84:1 85:1 86:1 87:1 88:0.8 89:0.8 90:1 91:0.777778 92:0.777778 93:0.777778 94:0.777778 95:0.777778 96:0.994975 97:0.995012 98:1 99:1 100:0.995012 101:1 102:1 103:1 104:0.995012 105:1 106:1 107:1 108:1 109:1 110:1 111:1 112:0.995025 113:1 114:1 115:0.995025 116:1 117:1 118:0.995025 119:0.995025 120:0.995025 121:0.995025 122:0.995025 123:0.995025 124:0.995025 125:0.995025 126:0.995025 127:1 128:1 
-1.602068644417969 0.7494211184809298 1:1 2:0.666667 3:1 4:1 5:1 6:0.857143 7:1 8:0.904762 9:0.916667 10:1 11:1 12:0.935484 13:0.935484 14:0.935484 15:0.935484 16:1 17:0.933333 18:1 19:0.933333 20:0.931034 21:0.928571 22:1 23:0.923077 24:0.92 25:0.92 26:1 27:1 28:1 29:0.916667 30:0.916667 31:0.913043 32:1 33:1 34:1 35:0.909091 36:1 37:0.909091 38:1 39:1 40:1 41:1 42:1 43:0.894737 44:1 45:0.888889 46:1 47:0.888889 48:0.882353 49:1 50:1 51:1 52:1 53:1 54:1 55:1 56:1 57:0.866667 58:0.857143 59:0.857143 60:1 61:1 62:1 63:1 64:0.846154 65:0.846154 66:0.846154 67:0.833333 68:0.833333 69:0.833333 70:1 71:0.833333 72:1 73:0.818182 74:0.818182 75:1 76:1 77:1 78:1 79:1 80:1 81:1 82:0.818182 83:1 84:1 85:1 86:1 87:1 88:0.8 89:0.8 90:1 91:0.777778 92:0.777778 93:0.777778 94:0.777778 95:0.777778 96:1 97:1 98:0.995012 99:0.995012 100:1 101:1 102:0.995012 103:0.995012 104:1 105:1 106:0.995012 107:1 108:0.995012 109:1 110:1 111:1 112:0.995025 113:1 114:1 115:0.995025 116:1 117:1 118:0.995025 119:0.995025 120:0.995025 121:0.995025 122:0.995025 123:0.995025 124:1 125:1 126:0.995025 127:1 128:0.995025 
-0 0.2156019930689746 1:1 2:0.666667 3:1 4:1 5:1 6:0.857143 7:1 8:0.904762 9:0.916667 10:1 11:1 12:0.935484 13:0.935484 14:0.935484 15:0.935484 16:0.933333 17:0.933333 18:0.931034 19:0.933333 20:0.931034 21:0.928571 22:1 23:1 24:0.92 25:0.92 26:1 27:1 28:1 29:0.916667 30:0.916667 31:0.913043 32:1 33:1 34:1 35:0.909091 36:1 37:0.909091 38:1 39:0.904762 40:1 41:1 42:1 43:0.894737 44:1 45:0.888889 46:1 47:0.888889 48:0.882353 49:1 50:1 51:1 52:1 53:1 54:1 55:1 56:1 57:0.866667 58:1 59:0.857143 60:1 61:1 62:1 63:1 64:0.846154 65:0.846154 66:0.846154 67:0.833333 68:0.833333 69:0.833333 70:1 71:0.833333 72:0.833333 73:1 74:1 75:1 76:1 77:1 78:1 79:1 80:1 81:1 82:0.818182 83:1 84:1 85:1 86:1 87:1 88:0.8 89:1 90:1 91:0.777778 92:0.777778 93:0.777778 94:0.777778 95:0.777778 96:0.994975 97:1 98:0.995012 99:0.995012 100:1 101:1 102:0.995012 103:1 104:1 105:1 106:0.995012 107:1 108:1 109:1 110:1 111:1 112:0.995025 113:1 114:1 115:0.995025 116:1 117:1 118:0.995025 119:0.995025 120:0.995025 121:0.995025 122:0.995025 123:0.995025 124:1 125:1 126:0.995025 127:0.995025 128:0.995025 
-2 0 1:1 2:1 3:1 4:1 5:0.8 6:0.857143 7:0.894737 8:1 9:0.916667 10:1 11:0.931034 12:0.870968 13:0.935484 14:0.935484 15:0.935484 16:0.933333 17:0.933333 18:1 19:0.933333 20:0.931034 21:0.928571 22:1 23:1 24:1 25:0.92 26:0.92 27:0.92 28:1 29:0.916667 30:1 31:0.913043 32:1 33:1 34:1 35:0.909091 36:0.904762 37:0.909091 38:0.904762 39:0.904762 40:1 41:1 42:1 43:1 44:0.894737 45:1 46:1 47:0.888889 48:0.882353 49:1 50:0.875 51:0.875 52:1 53:1 54:1 55:1 56:1 57:0.866667 58:0.857143 59:0.857143 60:0.846154 61:1 62:0.846154 63:1 64:0.846154 65:0.846154 66:0.846154 67:0.833333 68:0.833333 69:0.833333 70:0.833333 71:1 72:1 73:1 74:1 75:1 76:1 77:1 78:1 79:1 80:1 81:1 82:0.818182 83:1 84:1 85:1 86:1 87:1 88:0.8 89:0.8 90:1 91:0.777778 92:1 93:0.777778 94:0.777778 95:0.777778 96:0.994975 97:0.995012 98:0.995012 99:0.995012 100:1 101:0.995012 102:1 103:1 104:0.995012 105:1 106:1 107:1 108:1 109:0.995025 110:1 111:1 112:0.995025 113:1 114:1 115:0.995025 116:1 117:1 118:0.995025 119:0.995025 120:0.995025 121:0.995025 122:0.995025 123:1 124:0.995025 125:0.995025 126:0.995025 127:1 128:1 
-1.441760895236621 0.6333582279649574 1:1 2:0.666667 3:1 4:1 5:1 6:0.857143 7:1 8:0.904762 9:1 10:1 11:1 12:0.935484 13:0.935484 14:0.935484 15:1 16:0.933333 17:0.933333 18:1 19:0.933333 20:0.931034 21:0.928571 22:1 23:0.923077 24:0.92 25:0.92 26:1 27:0.92 28:1 29:0.916667 30:0.916667 31:0.913043 32:1 33:1 34:1 35:0.909091 36:1 37:0.909091 38:0.904762 39:1 40:1 41:1 42:1 43:0.894737 44:0.894737 45:0.888889 46:1 47:0.888889 48:0.882353 49:0.882353 50:1 51:1 52:1 53:1 54:1 55:1 56:1 57:0.866667 58:1 59:0.857143 60:1 61:1 62:1 63:1 64:0.846154 65:0.846154 66:0.846154 67:0.833333 68:0.833333 69:0.833333 70:1 71:1 72:0.833333 73:1 74:0.818182 75:0.818182 76:1 77:1 78:1 79:1 80:1 81:1 82:0.818182 83:1 84:1 85:1 86:1 87:1 88:0.8 89:0.8 90:1 91:0.777778 92:0.777778 93:0.777778 94:1 95:0.777778 96:1 97:1 98:0.995012 99:0.995012 100:1 101:1 102:1 103:0.995012 104:1 105:1 106:0.995012 107:1 108:0.995012 109:1 110:1 111:1 112:0.995025 113:1 114:1 115:0.995025 116:1 117:1 118:0.995025 119:0.995025 120:0.995025 121:0.995025 122:1 123:0.995025 124:1 125:1 126:1 127:0.995025 128:0.995025 
-2 0 1:1 2:1 3:1 4:0.714286 5:0.8 6:0.857143 7:0.894737 8:1 9:0.916667 10:1 11:0.931034 12:0.870968 13:0.935484 14:0.935484 15:0.935484 16:0.933333 17:0.933333 18:1 19:0.933333 20:0.931034 21:0.928571 22:1 23:1 24:1 25:0.92 26:0.92 27:0.92 28:1 29:0.916667 30:1 31:0.913043 32:1 33:1 34:1 35:0.909091 36:0.904762 37:0.909091 38:0.904762 39:1 40:1 41:1 42:1 43:0.894737 44:0.894737 45:1 46:1 47:0.888889 48:0.882353 49:1 50:0.875 51:1 52:1 53:1 54:1 55:1 56:1 57:0.866667 58:0.857143 59:1 60:0.846154 61:0.846154 62:1 63:1 64:0.846154 65:0.846154 66:0.846154 67:1 68:0.833333 69:0.833333 70:0.833333 71:1 72:1 73:1 74:1 75:1 76:1 77:1 78:1 79:1 80:1 81:1 82:0.818182 83:1 84:1 85:1 86:1 87:1 88:0.8 89:0.8 90:1 91:0.777778 92:0.777778 93:0.777778 94:0.777778 95:0.777778 96:0.994975 97:0.995012 98:0.995012 99:1 100:1 101:1 102:1 103:1 104:0.995012 105:1 106:1 107:1 108:1 109:1 110:1 111:1 112:0.995025 113:1 114:1 115:0.995025 116:1 117:1 118:0.995025 119:0.995025 120:0.995025 121:0.995025 122:0.995025 123:1 124:0.995025 125:0.995025 126:0.995025 127:1 128:1 
-0 0.3681337490579166 1:1 2:0.333333 3:1 4:1 5:1 6:0.857143 7:1 8:0.904762 9:0.916667 10:1 11:0.931034 12:0.870968 13:0.935484 14:0.935484 15:1 16:0.933333 17:0.933333 18:1 19:0.933333 20:0.931034 21:0.928571 22:1 23:0.923077 24:0.92 25:0.92 26:1 27:1 28:1 29:0.916667 30:0.916667 31:0.913043 32:1 33:1 34:1 35:1 36:1 37:0.909091 38:0.904762 39:1 40:1 41:1 42:1 43:0.894737 44:1 45:0.888889 46:1 47:0.888889 48:0.882353 49:0.882353 50:1 51:1 52:1 53:1 54:1 55:1 56:1 57:0.866667 58:0.857143 59:0.857143 60:1 61:1 62:1 63:1 64:0.846154 65:0.846154 66:0.846154 67:0.833333 68:0.833333 69:0.833333 70:1 71:1 72:1 73:1 74:0.818182 75:1 76:1 77:1 78:1 79:1 80:1 81:1 82:0.818182 83:1 84:1 85:1 86:1 87:1 88:0.8 89:0.8 90:1 91:0.777778 92:0.777778 93:0.777778 94:0.777778 95:0.777778 96:0.994975 97:1 98:0.995012 99:0.995012 100:1 101:1 102:0.995012 103:1 104:1 105:1 106:1 107:0.995012 108:0.995012 109:1 110:1 111:1 112:0.995025 113:1 114:1 115:0.995025 116:1 117:1 118:0.995025 119:0.995025 120:0.995025 121:0.995025 122:0.995025 123:0.995025 124:0.995025 125:1 126:0.995025 127:1 128:0.995025 
-0 0.9441435115992453 1:1 2:1 3:1 4:0.714286 5:0.8 6:0.857143 7:0.894737 8:0.904762 9:0.916667 10:1 11:0.931034 12:0.870968 13:0.935484 14:0.935484 15:0.935484 16:0.933333 17:0.933333 18:1 19:0.933333 20:0.931034 21:0.928571 22:1 23:1 24:1 25:0.92 26:1 27:0.92 28:1 29:0.916667 30:1 31:0.913043 32:1 33:1 34:1 35:0.909091 36:0.904762 37:0.909091 38:0.904762 39:0.904762 40:1 41:1 42:1 43:1 44:0.894737 45:0.888889 46:1 47:0.888889 48:0.882353 49:1 50:0.875 51:0.875 52:1 53:1 54:1 55:1 56:1 57:0.866667 58:0.857143 59:0.857143 60:0.846154 61:0.846154 62:0.846154 63:0.846154 64:0.846154 65:0.846154 66:0.846154 67:0.833333 68:0.833333 69:1 70:0.833333 71:1 72:1 73:1 74:1 75:1 76:1 77:1 78:1 79:1 80:1 81:1 82:0.818182 83:1 84:1 85:1 86:1 87:1 88:0.8 89:0.8 90:1 91:0.777778 92:0.777778 93:0.777778 94:0.777778 95:0.777778 96:0.994975 97:0.995012 98:1 99:1 100:0.995012 101:1 102:1 103:1 104:0.995012 105:1 106:1 107:1 108:1 109:1 110:1 111:1 112:1 113:1 114:1 115:0.995025 116:1 117:1 118:0.995025 119:0.995025 120:0.995025 121:0.995025 122:0.995025 123:0.995025 124:0.995025 125:0.995025 126:0.995025 127:1 128:1 
-1.270312640749482 0.1947061377274628 1:1 2:0.666667 3:1 4:1 5:1 6:0.857143 7:1 8:0.904762 9:0.916667 10:1 11:1 12:0.935484 13:0.935484 14:0.935484 15:1 16:0.933333 17:0.933333 18:0.931034 19:0.933333 20:0.931034 21:0.928571 22:1 23:0.923077 24:0.92 25:0.92 26:1 27:1 28:1 29:0.916667 30:0.916667 31:0.913043 32:1 33:1 34:1 35:0.909091 36:1 37:0.909091 38:0.904762 39:0.904762 40:1 41:1 42:1 43:0.894737 44:1 45:1 46:1 47:1 48:0.882353 49:0.882353 50:1 51:1 52:1 53:1 54:1 55:1 56:1 57:0.866667 58:0.857143 59:0.857143 60:0.846154 61:1 62:1 63:1 64:1 65:0.846154 66:0.846154 67:0.833333 68:0.833333 69:0.833333 70:1 71:0.833333 72:1 73:1 74:1 75:1 76:1 77:1 78:1 79:1 80:1 81:1 82:0.818182 83:1 84:1 85:1 86:1 87:1 88:0.8 89:0.8 90:1 91:0.777778 92:0.777778 93:0.777778 94:1 95:0.777778 96:1 97:1 98:0.995012 99:0.995012 100:1 101:1 102:0.995012 103:0.995012 104:1 105:1 106:1 107:1 108:0.995012 109:1 110:1 111:1 112:0.995025 113:1 114:1 115:0.995025 116:1 117:1 118:0.995025 119:0.995025 120:0.995025 121:0.995025 122:0.995025 123:0.995025 124:0.995025 125:0.995025 126:0.995025 127:0.995025 128:0.995025 
-2 0 1:1 2:1 3:1 4:0.714286 5:0.8 6:0.857143 7:0.894737 8:1 9:0.916667 10:1 11:0.931034 12:0.870968 13:0.935484 14:0.935484 15:0.935484 16:0.933333 17:0.933333 18:1 19:0.933333 20:0.931034 21:0.928571 22:1 23:1 24:1 25:0.92 26:1 27:0.92 28:1 29:0.916667 30:1 31:0.913043 32:0.909091 33:1 34:1 35:0.909091 36:0.904762 37:0.909091 38:0.904762 39:0.904762 40:1 41:1 42:1 43:1 44:0.894737 45:1 46:1 47:0.888889 48:0.882353 49:1 50:0.875 51:1 52:1 53:1 54:1 55:1 56:1 57:0.866667 58:0.857143 59:0.857143 60:0.846154 61:0.846154 62:0.846154 63:1 64:0.846154 65:0.846154 66:0.846154 67:1 68:0.833333 69:0.833333 70:1 71:1 72:1 73:1 74:1 75:1 76:1 77:1 78:1 79:1 80:1 81:1 82:0.818182 83:1 84:1 85:1 86:1 87:1 88:0.8 89:0.8 90:1 91:0.777778 92:0.777778 93:0.777778 94:0.777778 95:0.777778 96:0.994975 97:0.995012 98:1 99:0.995012 100:0.995012 101:0.995012 102:1 103:1 104:0.995012 105:1 106:1 107:1 108:1 109:0.995025 110:1 111:1 112:1 113:1 114:1 115:0.995025 116:1 117:1 118:0.995025 119:0.995025 120:0.995025 121:0.995025 122:0.995025 123:0.995025 124:0.995025 125:0.995025 126:0.995025 127:1 128:1 
-1.007530177962878 0 1:1 2:0.666667 3:1 4:1 5:1 6:0.857143 7:1 8:0.904762 9:0.916667 10:1 11:1 12:0.870968 13:0.935484 14:0.935484 15:1 16:1 17:0.933333 18:0.931034 19:0.933333 20:0.931034 21:0.928571 22:1 23:0.923077 24:0.92 25:0.92 26:1 27:1 28:1 29:0.916667 30:0.916667 31:0.913043 32:1 33:1 34:1 35:1 36:1 37:0.909091 38:1 39:1 40:1 41:1 42:1 43:0.894737 44:0.894737 45:0.888889 46:1 47:0.888889 48:1 49:0.882353 50:1 51:1 52:1 53:1 54:1 55:1 56:1 57:0.866667 58:1 59:0.857143 60:0.846154 61:1 62:1 63:1 64:0.846154 65:0.846154 66:0.846154 67:0.833333 68:0.833333 69:0.833333 70:1 71:0.833333 72:0.833333 73:1 74:0.818182 75:1 76:1 77:1 78:1 79:1 80:1 81:1 82:0.818182 83:1 84:1 85:1 86:1 87:1 88:0.8 89:0.8 90:1 91:0.777778 92:0.777778 93:0.777778 94:0.777778 95:0.777778 96:1 97:1 98:0.995012 99:0.995012 100:1 101:1 102:1 103:0.995012 104:1 105:0.995012 106:0.995012 107:1 108:1 109:1 110:1 111:1 112:0.995025 113:1 114:1 115:0.995025 116:1 117:1 118:0.995025 119:0.995025 120:0.995025 121:1 122:0.995025 123:0.995025 124:1 125:1 126:0.995025 127:1 128:0.995025 
